tree
version=v4
num_class=1
num_tree_per_iteration=1
label_index=0
max_feature_idx=19
objective=regression
feature_names=lag_1 lag_2 lag_3 lag_4 lag_8 roll_mean_8 roll_std_8 roll_skew_8 roll_kurt_8 pct_gap_1 prop_gap_1 time_since_nonzero ctrpty_quarter_season ctrpty_quarter_anom q_sin q_cos exp_mean exp_std exp_min exp_max
feature_infos=[2.1684043449710093e-19:60801.378120000008] [0:60801.378120000008] [0:60801.378120000008] [0:60801.378120000008] [0:60801.378120000008] [2.1684043449710093e-19:60801.378120000008] [0:32499.703652676217] [-936182044.15970445:224662623.41457021] [-52477618789979416:36967140379982552] [-0.99999999999999989:4.2427511369531962e+17] [-1:4.2427511369531962e+17] [1:56] [1.0842021724855047e-19:27117.560864812272] [-27117.560864812272:48143.155982382275] [-1:1] [-1:1] [5.7632076504646337e-06:53300.774000542755] [2.4508124441174521e-05:30228.445809429566] [0:3453.7452349482674] [0.0001342635710312:60801.378120000008]
tree_sizes=2635 2781 2781 2797 2802 2807 2814 2769 2810 2789 2783 2819 2773 2775 2795 2779 2768 2827 2786 2757 2796 2828 2806 2831 2741 2823 2834 2805 2812 2801 2790 2791 2829 2750 2778 2829 2833 2816 2803 2805 2811 2792 2822 2813 2784 2805 2814 2812 2802 2833 2799 2825 2810 2805 2807 2811 2744 2821 2809 2797 2792 2785 2762 2791 2789 2791 2798 2773 2827 2789 2804 2788 2763 2562 2796 2623 2626 2801 2622 2773 2685 2795 2765 2630 2357 2703 2696 2650 2610 2665 2547 2485 2337 2831 2745 2269 2529 2204 2317 2386 2538 2552 2231 2763 2287 2353 2399 2706 2359 2548 2731 2362 2500 2408 2682 2361 2160 2760 2554 2697 2467 2720 2592 2468 2696 2579 2713 2713 2758 2580 2471 2454 2308 2649 2696 2662 2673 2645 2701 2712 2650 2713 2704 2773 2674 2716 2728 2750 2432 2634 2291 2602 2613 2621 2635 2285 2616 2632 2245 2667 2401 2691 2700 2410 2722 2719 2651 2683 2667 2661 2644 2668 2611 2670 2698 2675 2684 2659 2672 2735 2675 2634 2648 2670 2092 2332 2648 2692 2691 2693 2721 2650 2728 2761 2578 2664 2557 2644 2693 2644 2733 2691 2626 2633 2626 2673 2592 2593 2601 2667 2677 2654 2626 2649 2691 2651 2659 2664 2648 2701 2698 2638 2637 2639 2698 2641 2656 2727 2708 2612 2702 2682 2671 2638 2665 2622 2646 2653 2620 2740 2664 2667 2618 2612 2669 2630 2674 2599 2626 2585 2658 2617 2630 2574 2580 2597 2662 2610 2594 2630 2595 2650 2569 2580 2627 2522 2642 2585 2595 2612 2683 2522 2577 2574 2574 2631 2606 2548 2548 2587 2570 2532 2547 2577 2636 2548 2560 2593 2586 2572 2568 2524 2571 2640 2559 2555 2572 2605 2538 2552 2624 2531 2613 2628 2584 2613 2538 2577 2633 2621 2567 2543 2558 2568 2573 2603 2587 2558 2530 2569 2523 2567 2576 2571 2568 2571 2556 2513 2534 2543 2591 2570 2523 2572 2592 2586 2525 2564 2529 2541 2543 2580 2532 2636 2501 2513 2549 2526 2546 2596 2528 2495 2560 2551 2629 2556 2524 2594 2590 2536 2547 2537 2521 2568 2534 2522 2515 2590 2551 2575 2498 2598 2500 2553 2424 2583 2499 2537 2554 2513 2483 2573 2505 2585 2519 2519 2557 2516 2573 2535 2531 2531 2523 2458 2557 2522 2538 2548 2495 2503 2530 2482 2521 2554 2488 2552 2542 2523 2511 2582 2550 2508 2530 2507 2493 2530 2511 2562 2523 2498 2495 2558 2492 2483 2501 2516 2539 2511 2508 2554 2545 2513 2515 2524 2519 2499 2500 2489 2506 2390 2517 2527 2519 2460 2524 2499 2509 2515 2507 2509 2579 2478 2491 2544 2469 2483 2480 2500 2504 2218 2559 2501 2503 2514 2469 2442 2514 2575 2467 2465 2529 2509 2484 2538 2311 2536 2517 2505 2479 2565 2514 2450 2473 2489 2518 2380 2327 2517 2499 2531 2502 2470 2527 1960 2486 2508 2511 2472 2349 2476

Tree=0
num_leaves=31
num_cat=0
split_feature=0 13 0 9 12 10 0 0 1 0 0 0 13 0 0 9 9 0 9 5 9 9 9 9 9 0 9 9 0 0
split_gain=35891.6 3320.72 3318.22 1108.43 906.764 803.989 710.379 291.52 246.803 74.1877 60.1873 53.144 45.957 41.6438 39.2414 37.2939 24.3968 18.0549 16.9579 13.6742 11.8979 8.78881 7.42599 5.60477 4.56002 4.1235 3.41307 3.04115 2.821 2.36168
threshold=91.395500000000013 1297.8276794368169 5.7615000000000025 -0.88832786712676548 8723.9648311064411 -0.72684112186141236 527.8520000000002 24.159500000000005 1.2211098441183881 188.00000000000003 1266.4224058094544 4064.6220000000008 0.92590552439435203 10.559670381034261 48.135263857448784 2.639234449760766 -0.97641331856282743 1.9999999999999984 0.63505152401122089 0.24625311375400835 0.30024292829552696 -0.47604073075771181 -0.17592738020204354 0.19854057141343043 -0.27138478193754589 2602.0000000000005 -0.078466592869619864 0.33605169653064643 18.017204627343038 36.890452469070404
decision_type=2 2 2 2 2 2 2 2 2 2 2 2 2 2 2 2 2 2 2 2 2 2 2 2 2 2 2 2 2 2
left_child=2 3 8 -2 11 16 9 13 12 24 -8 -3 19 23 20 17 -4 -10 28 -1 26 -19 -16 -7 -5 -12 -9 -24 -15 -28
right_child=1 4 5 6 -6 7 10 14 15 -11 25 -13 -14 18 22 -17 -18 21 -20 -21 -22 -23 27 -25 -26 -27 29 -29 -30 -31
leaf_value=3.7997134300884872 3.8036447443264532 4.0351526349273605 3.8004362796982107 3.9249311575036532 4.1228194549687558 3.8592263282820998 4.0004443677684369 3.8954249096858309 3.8170074712905993 3.9694432385517269 4.0189645822809599 4.0603428705613602 3.851969279351307 3.8789491890443175 3.9116491114960192 3.8780563138881003 3.8410703135139643 3.8156838677300682 3.9122199935450892 3.8113797830498188 3.9193336800873522 3.8426842772451324 3.9237458401770731 3.8827069979357529 3.9429284456115252 4.042454981713405 3.9019708305908436 3.937538419364246 3.890144124208899 3.9122222005872347
leaf_weight=744 28 227 82 22 228 112 248 67 82 216 267 234 25 143 38 22 32 28 21 336 37 189 137 23 114 45 77 20 64 40
leaf_count=744 28 227 82 22 228 112 248 67 82 216 267 234 25 143 38 22 32 28 21 336 37 189 137 23 114 45 77 20 64 40
internal_value=3.91532 4.02321 3.83952 3.98635 4.07326 3.88496 3.99211 3.89597 3.81112 3.95838 4.01315 4.04829 3.80423 3.87635 3.9132 3.8352 3.81084 3.83229 3.88474 3.80322 3.90452 3.83862 3.9229 3.86274 3.94033 4.02284 3.90137 3.92582 3.88213 3.90517
internal_weight=3948 1629 2319 940 689 893 912 779 1426 352 560 461 1105 363 416 321 114 299 228 1080 221 217 195 135 136 312 184 157 207 117
internal_count=3948 1629 2319 940 689 893 912 779 1426 352 560 461 1105 363 416 321 114 299 228 1080 221 217 195 135 136 312 184 157 207 117
is_linear=0
shrinkage=1


Tree=1
num_leaves=31
num_cat=0
split_feature=0 13 0 9 12 10 0 0 1 0 0 0 0 13 9 0 9 0 9 9 5 9 9 9 9 9 0 9 0 17
split_gain=33783.9 3125.03 3121.74 1051.89 828.631 757.245 686.499 274.705 231.548 77.1885 53.7054 45.697 43.6327 42.8464 34.8935 32.5487 22.6843 16.841 13.2662 13.114 12.6625 8.32013 7.01597 5.98168 5.14211 4.1045 3.59715 2.85674 2.7653 2.22214
threshold=91.395500000000013 1353.7636841785991 5.7615000000000025 -0.88832786712676548 8723.9648311064411 -0.72684112186141236 586.08850000000018 22.082500000000007 1.2211098441183881 224.47000000000003 1410.2855000000002 4769.0824666564613 48.135263857448784 0.92590552439435203 2.639234449760766 10.559670381034261 -0.97641331856282743 1.9999999999999984 0.55044907339448035 0.26138048597256863 0.22291642915671947 -0.63568362265332079 -0.17592738020204354 -0.21290655010339252 0.19854057141343043 -0.15488196192195527 35.085500000000003 0.33605169653064643 130.50000000000003 1121.9671532992872
decision_type=2 2 2 2 2 2 2 2 2 2 2 2 2 2 2 2 2 2 2 2 2 2 2 2 2 2 2 2 2 2
left_child=2 3 8 -2 11 16 9 15 13 23 -8 -3 19 20 17 24 -4 -10 -17 25 -1 -19 -14 -5 -7 -9 -27 -24 -25 -12
right_child=1 4 5 6 -6 7 10 12 14 -11 29 -13 22 -15 -16 18 -18 21 -20 -21 -22 -23 27 28 -26 26 -28 -29 -30 -31
leaf_value=-0.11226552059620987 -0.10843863832539526 0.11870406198501586 -0.11147685010749174 0.013058735713362694 0.20130353731880021 -0.054423871557269472 0.084874849039858036 -0.022982481647940242 -0.095396805412798047 0.05508906251886516 0.10212315550664576 0.14314813628715553 -0.0035617010693889685 -0.061521411142670186 -0.036192495213902512 -0.033506347799039146 -0.072087812423706044 -0.10135000024523054 -0.0061168305406516243 0.0025065305598242129 -0.10108523891600266 -0.071040070815519857 0.0081767802852846221 0.023532336933272224 -0.031673493832349776 -0.015405627677635269 -0.0047155090734096513 0.021585492619446346 0.036252918448941455 0.12500943059271033
leaf_weight=728 28 254 82 34 228 112 274 50 82 205 245 192 38 25 22 181 32 20 21 45 352 197 137 69 23 97 55 20 57 43
leaf_count=728 28 254 82 34 228 112 274 50 82 205 245 192 38 25 22 181 32 20 21 45 352 197 137 69 23 97 55 20 57 43
internal_value=0 0.104668 -0.0735435 0.0695857 0.154156 -0.0294654 0.0751063 -0.0187829 -0.101085 0.0427468 0.0959561 0.129591 -0.00313283 -0.107761 -0.0777473 -0.0391503 -0.101404 -0.0805741 -0.0308509 -0.0115348 -0.108746 -0.0744233 0.00736115 0.026503 -0.0510299 -0.0148075 -0.0117897 0.0102006 0.0297633 0.106065
internal_weight=3948 1629 2319 955 674 893 927 779 1426 365 562 446 442 1105 321 337 114 299 202 247 1080 217 195 160 135 202 152 157 126 288
internal_count=3948 1629 2319 955 674 893 927 779 1426 365 562 446 442 1105 321 337 114 299 202 247 1080 217 195 160 135 202 152 157 126 288
is_linear=0
shrinkage=0.03


Tree=2
num_leaves=31
num_cat=0
split_feature=0 13 0 9 12 10 0 0 1 0 16 0 13 0 0 9 9 0 9 5 9 9 9 9 0 13 9 0 9 0
split_gain=31800.4 2940.89 2937.02 984.44 802.436 713.249 629.798 258.946 217.218 60.5944 60.2855 47.238 39.9368 36.7363 34.765 32.643 21.0828 15.7003 15.0099 11.6991 10.6464 8.07404 6.62911 4.71148 4.42658 3.36988 3.13285 3.13214 2.9283 2.81694
threshold=91.395500000000013 1297.8276794368169 5.7615000000000025 -0.88832786712676548 8723.9648311064411 -0.72684112186141236 494.50000000000006 24.159500000000005 1.2211098441183881 1224.7160000000001 134.87784995325052 4064.6220000000008 0.92590552439435203 10.559670381034261 48.135263857448784 2.639234449760766 -0.97641331856282743 1.9999999999999984 0.63505152401122089 0.24625311375400835 0.30024292829552696 -0.30465572957878384 -0.17592738020204354 0.19854057141343043 2602.0000000000005 59.92741345808485 -0.26115814467980186 35.085500000000003 1.4292976739825538 67.466500000000011
decision_type=2 2 2 2 2 2 2 2 2 2 2 2 2 2 2 2 2 2 2 2 2 2 2 2 2 2 2 2 2 2
left_child=2 3 8 -2 11 16 10 13 12 -8 25 -3 19 23 20 17 -4 -10 -15 -1 26 -19 -16 -7 -11 -5 -9 -28 -21 -24
right_child=1 4 5 6 -6 7 9 14 15 24 -12 -13 -14 18 22 -17 -18 21 -20 28 -22 -23 29 -25 -26 -27 27 -29 -30 -31
leaf_value=-0.1087849066593503 -0.10529766107427663 0.11273131044287431 -0.10817283610263502 0.012486507897642819 0.19529080449233407 -0.052805603204575259 0.078818966717605132 -0.023834585414992438 -0.092569383368434677 0.097250463334691048 0.049537551417103351 0.13654666097113424 -0.059746756012050005 -0.031274618275750142 -0.0034575899811282469 -0.035153929257522455 -0.069990710778669876 -0.091158233139965988 -0.002869461218149147 -0.099491340893145194 0.0038251057786768982 -0.067806440650761773 0.0051845522489211366 -0.03076287984848022 0.11982653042544489 0.026062849096713525 -0.01466605195775628 -0.0049920098134316505 -0.071590884160995488 0.014181885847562475
leaf_weight=744 28 227 82 36 228 112 248 26 82 280 211 234 25 207 38 22 32 36 21 312 37 181 79 23 45 92 95 63 24 78
leaf_count=744 28 227 82 36 228 112 248 26 82 280 211 234 25 207 38 22 32 36 21 312 37 181 79 23 45 92 95 63 24 78
internal_value=0 0.101547 -0.0713539 0.0668645 0.148656 -0.0285984 0.0722926 -0.0182294 -0.0980688 0.0915075 0.0395524 0.125154 -0.104538 -0.0367132 -0.00197919 -0.0754516 -0.0984177 -0.0781896 -0.0288133 -0.105491 -0.0101604 -0.0722185 0.00714432 -0.0495246 0.100826 0.0226035 -0.0131403 -0.011053 -0.0978058 0.00990591
internal_weight=3948 1629 2319 940 689 893 912 779 1426 573 339 461 1105 363 416 321 114 299 228 1080 221 217 195 135 325 128 184 158 336 157
internal_count=3948 1629 2319 940 689 893 912 779 1426 573 339 461 1105 363 416 321 114 299 228 1080 221 217 195 135 325 128 184 158 336 157
is_linear=0
shrinkage=0.03


Tree=3
num_leaves=31
num_cat=0
split_feature=0 13 0 9 12 10 0 0 1 0 0 0 0 13 9 0 9 0 9 9 5 9 9 9 9 9 0 9 0 0
split_gain=29933.4 2767.9 2763.37 934.204 733.157 671.805 608.612 244.088 203.819 68.5621 47.7836 40.6819 38.6304 37.2217 30.531 28.6623 19.5853 14.6337 11.8959 11.7241 10.7711 7.67707 6.26239 5.43332 4.3108 3.86477 3.26724 2.70607 2.18851 1.85597
threshold=91.395500000000013 1353.7636841785991 5.7615000000000025 -0.88832786712676548 8723.9648311064411 -0.72684112186141236 586.08850000000018 22.082500000000007 1.2211098441183881 224.47000000000003 1477.2780000000002 4769.0824666564613 48.135263857448784 0.92590552439435203 2.639234449760766 10.559670381034261 -0.97641331856282743 1.9999999999999984 0.26138048597256863 0.30024292829552696 0.22291642915671947 -0.63568362265332079 -0.17592738020204354 -0.15745754861351188 0.19854057141343043 -0.15488196192195527 32.285000000000004 0.33605169653064643 130.50000000000003 67.466500000000011
decision_type=2 2 2 2 2 2 2 2 2 2 2 2 2 2 2 2 2 2 2 2 2 2 2 2 2 2 2 2 2 2
left_child=2 3 8 -2 11 16 9 15 13 23 -8 -3 19 20 17 24 -4 -10 -17 25 -1 -19 -14 -5 -7 -9 -27 29 -25 -24
right_child=1 4 5 6 -6 7 10 12 14 -11 -12 -13 22 -15 -16 18 -18 21 -20 -21 -22 -23 27 28 -26 26 -28 -29 -30 -31
leaf_value=-0.10564310761636177 -0.10224765596718624 0.11167335302689496 -0.10496675439627774 0.014285395373689367 0.18945765720184193 -0.051235455738759678 0.080761080885250303 -0.021716163368786082 -0.089825757928641448 0.051863443938273822 0.10083507013864842 0.13480076121542739 -0.0033565219642164613 -0.058023292207374018 -0.034145163717153273 -0.032896075138339288 -0.067954618280584161 -0.095849765368870327 -0.012942452639940061 0.0031592226534017495 -0.095129258558365168 -0.066839103572296374 0.0035034825732852791 0.02273581051826477 -0.029878448247909545 -0.015207251480647496 -0.0055035575533386423 0.020679247549601962 0.035273181200027467 0.011421304251998662
leaf_weight=728 28 254 82 46 228 112 300 50 82 205 262 192 38 25 22 161 32 20 41 41 352 197 70 64 23 83 73 20 50 67
leaf_count=728 28 254 82 46 228 112 300 50 82 205 262 192 38 25 22 161 32 20 41 41 352 197 70 64 23 83 73 20 50 67
internal_value=-3.11835e-07 0.0985182 -0.069231 0.0654975 0.145095 -0.0277572 0.0707012 -0.0176926 -0.0951443 0.0402242 0.0903352 0.121976 -0.00293624 -0.101413 -0.0732232 -0.0368918 -0.0955195 -0.0758751 -0.0290776 -0.0108448 -0.102335 -0.0700779 0.00693243 0.0248955 -0.0480639 -0.0137787 -0.0109215 0.0096181 0.0287544 0.0076478
internal_weight=3948 1629 2319 955 674 893 927 779 1426 365 562 446 442 1105 321 337 114 299 202 247 1080 217 195 160 135 206 156 157 114 137
internal_count=3948 1629 2319 955 674 893 927 779 1426 365 562 446 442 1105 321 337 114 299 202 247 1080 217 195 160 135 206 156 157 114 137
is_linear=0
shrinkage=0.03


Tree=4
num_leaves=31
num_cat=0
split_feature=0 13 0 13 9 10 0 0 1 0 16 13 0 0 9 0 12 9 0 9 9 9 0 5 9 9 13 9 0 9
split_gain=28175.2 2605.74 2599.91 1003.86 773.773 632.791 346.389 229.963 191.254 79.9354 41.9507 34.2583 32.4269 30.8282 30.1143 27.42 19.4187 18.1854 17.4695 13.5004 9.50339 7.26501 6.73389 6.33804 5.93116 3.97915 3.03344 2.80549 2.7739 2.7648
threshold=91.395500000000013 714.08270943045102 5.7615000000000025 5570.5520772430727 -0.88832786712676548 -0.72684112186141236 416.01350000000008 24.159500000000005 1.1035000000000004 3176.1970000000006 134.87784995325052 0.92590552439435203 10.559670381034261 48.135263857448784 2.639234449760766 920.1600000000002 8723.9648311064411 -0.97641331856282743 1.9999999999999984 0.63505152401122089 0.30024292829552696 -0.47604073075771181 2681.0000000000005 0.22291642915671947 -0.12205232305956908 0.24276839061487812 59.92741345808485 -0.28920142653409026 35.085500000000003 2.0886063694201851
decision_type=2 2 2 2 2 2 2 2 2 2 2 2 2 2 2 2 2 2 2 2 2 2 2 2 2 2 2 2 2 2
left_child=2 4 8 9 -2 17 10 12 11 -3 26 23 25 20 18 -8 -5 -4 -10 -14 27 -20 -17 -1 -15 -7 -6 -9 -29 -25
right_child=1 3 5 16 6 7 15 13 14 -11 -12 -13 19 24 -16 22 -18 -19 21 -21 -22 -23 -24 29 -26 -27 -28 28 -30 -31
leaf_value=-0.10247116510533104 -0.099286004674845718 0.09797262842590744 -0.10185568838234406 0.14276198795863559 0.011599220348572407 -0.049441018865026276 0.067480012989321422 -0.02327592324465513 -0.087068288291876128 0.12183069540705492 0.044506790520371618 -0.055031680993270125 -0.029480640257780365 -0.0021269583391976799 -0.033165346230987623 0.083090607050968254 0.18379875445470018 -0.065977756164290691 -0.088886727629036724 -0.0024825363913127643 0.0036210897996237401 -0.064326396156102417 0.11399974692951549 -0.094356489502466639 0.0096655171432532359 -0.027560183746474128 0.024546423477511251 -0.013923069894621052 -0.0048590094767595555 -0.067050755396485334
leaf_weight=725 28 369 82 41 36 115 171 23 103 276 184 23 207 46 22 183 228 32 28 21 37 191 21 311 149 20 92 96 65 23
leaf_count=725 28 369 82 41 36 115 171 23 103 276 184 23 207 46 22 183 228 32 28 21 37 191 21 311 149 20 92 96 65 23
internal_value=-2.83021e-06 0.0955783 -0.0671697 0.129151 0.0524996 -0.0269398 0.0588648 -0.0171704 -0.0923052 0.108401 0.0351621 -0.0986641 -0.0345893 -0.00185226 -0.0719892 0.0783596 0.178207 -0.0927069 -0.074438 -0.0271467 -0.0095597 -0.0679927 0.0869593 -0.0995307 0.00673398 -0.0466465 0.0212557 -0.0123776 -0.0105014 -0.0927715
internal_weight=3948 1629 2319 914 715 893 687 779 1426 645 312 1082 363 416 344 375 269 114 322 228 221 219 204 1059 195 135 128 184 161 334
internal_count=3948 1629 2319 914 715 893 687 779 1426 645 312 1082 363 416 344 375 269 114 322 228 221 219 204 1059 195 135 128 184 161 334
is_linear=0
shrinkage=0.03


Tree=5
num_leaves=31
num_cat=0
split_feature=0 13 0 9 12 10 0 0 1 0 0 12 0 13 9 0 9 0 9 9 9 5 9 17 9 9 9 0 9 9
split_gain=26522.3 2456.42 2446.08 829.387 647.23 596 538.714 216.901 179.462 55.2312 47.32 36.3911 34.2031 31.9052 28.1591 25.2251 16.877 16.2874 10.719 10.4943 6.96175 5.70623 5.63299 4.77518 3.66164 3.63423 3.41199 3.45021 2.64422 2.31968
threshold=91.395500000000013 1353.7636841785991 5.7615000000000025 -0.88832786712676548 8723.9648311064411 -0.72684112186141236 527.8520000000002 22.082500000000007 1.1035000000000004 188.00000000000003 1266.4224058094544 1206.2194230315183 48.135263857448784 0.92590552439435203 2.639234449760766 10.559670381034261 -0.97641331856282743 1.9999999999999984 0.26138048597256863 0.26138048597256863 -0.63568362265332079 0.22291642915671947 -0.21290655010339252 1121.9671532992872 -0.27138478193754589 0.19854057141343043 -0.28920142653409026 33.936500000000002 0.33605169653064643 2.0886063694201851
decision_type=2 2 2 2 2 2 2 2 2 2 2 2 2 2 2 2 2 2 2 2 2 2 2 2 2 2 2 2 2 2
left_child=2 3 8 -2 11 16 9 15 13 24 -8 -3 19 21 17 25 -4 -10 -17 26 -19 -1 -14 -12 -5 -7 -9 -28 -24 -23
right_child=1 4 5 6 -6 7 10 12 14 -11 23 -13 22 -15 -16 18 -18 20 -20 -21 -22 29 28 -25 -26 -27 27 -29 -30 -31
leaf_value=-0.099401265560102842 -0.09641013202996089 0.1010556756637313 -0.098836831328380531 0.0075059511378893383 0.17830886919946129 -0.048241888274133726 0.073078493809843645 -0.024533653282202205 -0.084481354711147455 0.046544837790974826 0.089435564467781462 0.12328309967237361 -0.0038806812329483884 -0.053449520049616693 -0.032213645542607361 -0.031036324788022922 -0.064058402451601881 -0.090571579933166502 -0.012047180897290153 0.0023082827213827678 -0.062915624856948849 -0.091534866896959444 0.0070377280307986154 0.11141837320544502 0.023679719287416207 -0.028145034760236737 -0.014904897898435592 -0.0054326251940447767 0.019812254735401699 -0.065123046040534968
leaf_weight=725 28 175 82 22 228 112 248 25 103 216 284 271 34 23 22 161 32 20 41 45 199 311 141 43 114 23 104 73 20 23
leaf_count=725 28 175 82 22 228 112 248 25 103 216 284 271 34 23 22 161 32 20 41 45 199 311 141 43 114 23 104 73 20 23
internal_value=-4.93168e-06 0.0927299 -0.0651721 0.0616195 0.13661 -0.026149 0.0665238 -0.0166664 -0.0895529 0.0369859 0.0844585 0.114874 -0.00275199 -0.0957155 -0.0698612 -0.0347653 -0.0899773 -0.0722328 -0.0274082 -0.0101965 -0.0659779 -0.0965539 0.00652852 0.0927486 0.0213562 -0.0452707 -0.0131276 -0.0112193 0.00892231 -0.0900055
internal_weight=3948 1629 2319 955 674 893 927 779 1426 352 575 446 442 1082 344 337 114 322 202 247 219 1059 195 327 136 135 202 177 161 334
internal_count=3948 1629 2319 955 674 893 927 779 1426 352 575 446 442 1082 344 337 114 322 202 247 219 1059 195 327 136 135 202 177 161 334
is_linear=0
shrinkage=0.03


Tree=6
num_leaves=31
num_cat=0
split_feature=0 13 0 9 0 10 12 0 1 0 0 0 13 9 0 9 0 17 9 9 12 5 9 9 9 9 0 9 1 9
split_gain=24965.5 2314.57 2301.42 828.646 631.912 561.363 433.107 204.277 168.383 63.0225 62.1358 32.2423 29.705 26.5297 23.7043 15.6542 13.8356 11.1612 10.8185 10.0921 7.85792 5.27569 4.95435 4.70903 3.88539 3.73388 3.70407 3.34034 3.27958 2.01018
threshold=91.395500000000013 1839.9608800744811 5.7615000000000025 -0.88832786712676548 637.79964864498118 -0.72684112186141236 8723.9648311064411 22.082500000000007 1.1035000000000004 224.47000000000003 1477.2780000000002 50.943500000000007 0.92590552439435203 1.6364487835860964 10.559670381034261 -0.97641331856282743 2.3864118315418232 1121.9671532992872 0.28571428571429663 0.55044907339448035 3289.7044748983649 0.45204076379539188 -0.12205232305956908 -0.15745754861351188 -0.33333333333333326 -0.28920142653409026 33.936500000000002 0.24276839061487812 376.22823471424425 0.24276839061487812
decision_type=2 2 2 2 2 2 2 2 2 2 2 2 2 2 2 2 2 2 2 2 2 2 2 2 2 2 2 2 2 2
left_child=2 3 8 -2 9 15 20 14 12 23 -6 18 21 16 27 -4 -10 -12 25 -16 -3 -1 -13 -5 -18 -9 -27 -7 -11 -24
right_child=1 6 5 4 10 7 -8 11 13 28 17 22 -14 -15 19 -17 24 -19 -20 -21 -22 -23 29 -25 -26 26 -28 -29 -30 -31
leaf_value=-0.095808194408681976 -0.093617565467439851 0.11046994849973837 -0.095907455007713957 0.012738734185101186 0.074273092048242687 -0.04655138580963529 0.17298295953908863 -0.023888937698470222 -0.078842825676431721 0.042702649124833035 0.090031031634646597 -0.0013722336865030229 -0.051912845745682716 -0.036052801705896857 -0.028914987135391965 -0.062194887182929287 -0.079150299787521361 0.10897345158186825 0.0034147706317404903 -0.0048461428487842732 0.13151768612307171 -0.085567698562756561 0.0074722726827393428 0.026253373682498929 -0.05794514748301819 -0.014299420447399219 -0.0049619643658217853 -0.02596860681261335 0.055048951899612342 0.018780854499858359
leaf_weight=826 28 226 82 46 287 115 228 26 150 128 310 44 23 29 181 32 29 87 44 21 85 233 118 114 136 107 81 20 90 22
leaf_count=826 28 226 82 46 287 115 228 26 150 128 310 44 23 29 181 32 29 87 44 21 85 233 118 114 136 107 81 20 90 22
internal_value=-7.85104e-06 0.089964 -0.0632338 0.0646664 0.0689519 -0.0253807 0.140852 -0.0161764 -0.086883 0.0375355 0.0861897 -0.00267076 -0.0928551 -0.0677967 -0.033741 -0.0873283 -0.0705008 0.0945209 -0.00954654 -0.0265968 0.116722 -0.0936662 0.00680762 0.0226575 -0.0623072 -0.0123545 -0.0104826 -0.043936 0.0481648 0.0095827
internal_weight=3948 1629 2319 1090 1062 893 539 779 1426 378 684 442 1082 344 337 114 315 397 258 202 311 1059 184 160 165 214 188 135 218 140
internal_count=3948 1629 2319 1090 1062 893 539 779 1426 378 684 442 1082 344 337 114 315 397 258 202 311 1059 184 160 165 214 188 135 218 140
is_linear=0
shrinkage=0.03


Tree=7
num_leaves=31
num_cat=0
split_feature=0 13 0 9 0 10 12 1 0 0 0 13 9 0 0 9 5 0 9 0 17 9 13 9 10 9 9 9 1 0
split_gain=23500.4 2178.87 2166.42 766.307 553.834 493.091 464.56 257.483 122.813 59.2464 49.0072 45.2551 32.594 23.0622 15.286 14.9517 14.4815 14.23 12.8249 10.6469 7.50395 7.22712 7.21785 5.9938 4.69328 4.67624 4.44957 3.06957 3.00171 2.11122
threshold=91.395500000000013 1621.2464297171721 8.0140000000000011 -0.88832786712676548 637.79964864498118 -0.76001914312257524 8723.9648311064411 1.4450000000000001 29.0825 224.47000000000003 1477.2780000000002 1.1342554997635623 -0.63568362265332079 3.5510639339176078 55.306000000000004 0.26138048597256863 0.45204076379539188 5403.018500000001 0.45512491855175935 18.017204627343038 1121.9671532992872 0.068752587489466235 2.0955308049045351 -0.34420432610076712 -0.9791968944889905 -0.12205232305956908 -0.21290655010339252 0.78989987113595073 376.22823471424425 130.50000000000003
decision_type=2 2 2 2 2 2 2 2 2 2 2 2 2 2 2 2 2 2 2 2 2 2 2 2 2 2 2 2 2 2
left_child=2 3 7 -2 9 24 17 11 15 26 -6 16 -9 22 21 19 -1 -3 -15 -7 -12 -10 -14 -18 -4 -16 -5 -17 -11 -28
right_child=1 6 5 4 10 8 -8 12 14 28 20 -13 13 18 25 27 23 -19 -20 -21 -22 -23 -24 -25 -26 -27 29 -29 -30 -31
leaf_value=-0.09289730326981066 -0.090905881010252848 0.10336189193858041 -0.09280550142696925 0.010280713115020523 0.072052635836104537 -0.032900620627116003 0.16781614024566249 -0.087435977242209695 -0.008777447727570024 0.041431499768135163 0.08664120766710727 -0.040093719281933518 -0.067367536564462274 -0.05047700786090397 -0.0008996577247744425 -0.014901907831106497 -0.092061749949599758 0.12264155795876408 -0.020413044961169361 -0.019577084458188006 0.10550496021906534 0.0040690383725226495 -0.039474435533796037 -0.075966106217759885 -0.060574228252683368 0.010341613884424655 0.01930407389146941 0 0.053415630584234722 0.030506591591341743
leaf_weight=835 28 215 69 34 287 165 228 43 136 128 281 21 168 142 39 45 98 141 20 113 71 51 20 192 20 122 69 20 90 57
leaf_count=835 28 215 69 34 287 165 228 43 136 128 281 21 168 142 39 45 98 141 20 113 71 51 20 192 20 122 69 20 90 57
internal_value=-8.77849e-06 0.087283 -0.0613517 0.0611951 0.0654974 -0.0205351 0.133728 -0.0819922 -0.0118635 0.0364274 0.082563 -0.0892849 -0.0604775 -0.0568404 0.000616366 -0.0245774 -0.0901401 0.111404 -0.0470975 -0.027682 0.0908192 -0.00511128 -0.0647835 -0.0818061 -0.0866494 0.00744464 0.0219906 -0.0106262 0.0467374 0.0248084
internal_weight=3948 1629 2319 1045 1017 780 584 1539 691 378 639 1146 393 350 348 343 1125 356 162 278 352 187 188 290 89 161 160 65 218 126
internal_count=3948 1629 2319 1045 1017 780 584 1539 691 378 639 1146 393 350 348 343 1125 356 162 278 352 187 188 290 89 161 160 65 218 126
is_linear=0
shrinkage=0.03


Tree=8
num_leaves=31
num_cat=0
split_feature=0 13 0 13 9 10 0 0 1 0 16 13 0 9 0 0 0 9 12 9 9 9 9 0 9 13 13 9 5 9
split_gain=22121.9 2052.72 2038.66 790.387 609.896 498.558 271.202 181.449 148.071 61.5276 33.2364 26.5336 25.9961 25.357 24.3574 22.0643 16.1459 13.6246 10.9335 8.47502 8.32199 7.97127 6.31118 5.18804 4.24596 2.57752 2.49618 2.13448 1.52358 3.52716
threshold=91.395500000000013 714.08270943045102 5.7615000000000025 5570.5520772430727 -0.88832786712676548 -0.72684112186141236 416.01350000000008 24.159500000000005 1.0012568413375613 3176.1970000000006 134.87784995325052 0.92590552439435203 13.003500000000001 2.639234449760766 52.644325615237655 920.1600000000002 1.9999999999999984 -0.92774725274725267 8723.9648311064411 0.32983952670012734 0.075745866704135648 0.40228761027803311 -0.47604073075771181 2681.0000000000005 -0.17592738020204354 59.92741345808485 26.034406807524423 0.087710883912204843 0.22291642915671947 2.0886063694201851
decision_type=2 2 2 2 2 2 2 2 2 2 2 2 2 2 2 2 2 2 2 2 2 2 2 2 2 2 2 2 2 2
left_child=2 4 8 9 -2 17 10 12 11 -3 25 28 19 16 20 -8 -10 -4 -5 -7 26 -14 -18 -17 -16 -6 -9 -26 -1 -30
right_child=1 3 5 18 6 7 15 14 13 -11 -12 -13 21 -15 24 23 22 -19 -20 -21 -22 -23 -24 -25 27 -27 -28 -29 29 -31
leaf_value=-0.090769969279115847 -0.088272744458297192 0.086841441450892259 -0.089401775137944645 0.12752742631094796 0.0097661120706313363 -0.041697100348770617 0.059545984655445396 -0.013432655036729529 -0.077177861131082368 0.10791390159930563 0.039432880954162489 -0.048824277075473217 -0.024172519901219533 -0.028919126957088061 -0.0019188844036044819 0.073606235605219145 -0.079180668115615846 -0.055886275789567404 0.16280364003243925 -0.020730128785775553 0.00051250400402071605 -0.0030362784352315508 -0.056884529050439593 0.10140270840037953 0.0064834929685974405 0.021702474519129721 -0.0035733847993585032 0.016307593652180263 -0.084248489066958435 -0.058300979658961291
leaf_weight=725 28 369 87 41 36 159 171 132 126 276 184 23 152 22 34 183 29 27 228 30 70 22 191 21 106 92 40 34 287 23
leaf_count=725 28 369 87 41 36 159 171 132 126 276 184 23 152 22 34 183 29 27 228 30 70 22 191 21 106 92 40 34 287 23
internal_value=-9.7768e-06 0.0846827 -0.0595265 0.114483 0.0464402 -0.023897 0.0520946 -0.0152202 -0.0817852 0.096058 0.0311015 -0.0876521 -0.0306934 -0.0646449 -0.0016051 0.0693519 -0.0667402 -0.0822798 0.15803 -0.0386535 -0.0078052 -0.0217042 -0.0603043 0.0770947 0.00684193 0.0186797 -0.0113471 0.00918085 -0.088438 -0.0826135
internal_weight=3948 1629 2319 914 715 893 687 779 1426 645 312 1058 363 368 416 375 346 114 269 189 242 174 220 204 174 128 172 140 1035 310
internal_count=3948 1629 2319 914 715 893 687 779 1426 645 312 1058 363 368 416 375 346 114 269 189 242 174 220 204 174 128 172 140 1035 310
is_linear=0
shrinkage=0.03


Tree=9
num_leaves=31
num_cat=0
split_feature=0 13 0 9 0 10 12 1 0 0 0 13 9 0 0 9 5 9 0 17 9 9 9 9 9 10 9 0 1 9
split_gain=20824 1936.16 1920.23 706.067 562.023 437.657 303.766 226.271 109.146 60.2952 52.5056 40.2053 29.5034 20.6968 13.4875 13.1472 12.6323 11.5602 9.35904 7.75036 6.48639 6.40146 5.79505 4.17489 4.02624 3.96064 2.84235 2.83601 2.39785 2.23155
threshold=91.395500000000013 2027.605165227679 8.0140000000000011 -0.88832786712676548 637.79964864498118 -0.76001914312257524 8723.9648311064411 1.4450000000000001 29.0825 1625.7550000000003 224.47000000000003 1.1342554997635623 -0.63568362265332079 3.5510639339176078 55.306000000000004 0.26138048597256863 0.45204076379539188 0.45512491855175935 16.002000000000006 1121.9671532992872 0.068752587489466235 0.99999999999995015 -0.34420432610076712 -0.12205232305956908 -0.15745754861351188 -0.9791968944889905 0.78989987113595073 996.52300000000014 376.22823471424425 -0.19171949580853134
decision_type=2 2 2 2 2 2 2 2 2 2 2 2 2 2 2 2 2 2 2 2 2 2 2 2 2 2 2 2 2 2
left_child=2 3 7 -2 10 25 -3 11 15 27 24 16 -9 21 20 18 -1 -15 -7 -11 -10 -14 -18 -16 -5 -4 -17 -6 -12 -20
right_child=1 6 5 4 9 8 -8 12 14 19 28 -13 13 17 23 26 22 -19 29 -21 -22 -23 -24 -25 -26 -27 -28 -29 -30 -31
leaf_value=-0.087436637382187904 -0.085715877105449798 0.10872357668501606 -0.087417370217187068 0.011432722207713634 0.061779471324350597 -0.032433088922318609 0.15794085852443912 -0.082676324031569742 -0.0082448201491684397 0.08379809823052467 0.039021362887565483 -0.037536651741035959 -0.064192575260996809 -0.047490794525279864 -0.00082085239165462557 -0.014115375591361005 -0.086848652940807916 -0.018880836085549423 -0.028959619186141275 0.10012882997493933 0.003912565472643249 -0.041410408914089203 -0.071349472959424551 0.0097642883272250972 0.024007119484569715 -0.056959509508950373 0 0.07370141987661713 0.050234052493022034 -0.017135433004452631
leaf_weight=835 28 266 69 46 132 130 228 43 136 292 128 21 159 142 39 45 98 20 32 100 51 29 192 122 114 20 20 205 90 116
leaf_count=835 28 266 69 46 132 130 228 43 136 292 128 21 159 142 39 45 98 20 32 100 51 29 192 122 114 20 20 205 90 116
internal_value=-1.07943e-05 0.0821596 -0.0577555 0.0604423 0.0642403 -0.0193251 0.131773 -0.0771882 -0.0111525 0.0796644 0.0342829 -0.084029 -0.0570014 -0.0535351 0.000607697 -0.0231384 -0.0848361 -0.0442803 -0.0260547 0.0882846 -0.00476642 -0.0610747 -0.0769707 0.00702576 0.0206718 -0.0816152 -0.0100054 0.069317 0.0439957 -0.0200706
internal_weight=3948 1629 2319 1135 1107 780 494 1539 691 729 378 1146 393 350 348 343 1125 162 278 392 187 188 290 161 160 89 65 337 218 148
internal_count=3948 1629 2319 1135 1107 780 494 1539 691 729 378 1146 393 350 348 343 1125 162 278 392 187 188 290 161 160 89 65 337 218 148
is_linear=0
shrinkage=0.03


Tree=10
num_leaves=31
num_cat=0
split_feature=0 13 0 9 0 10 12 1 0 0 0 13 9 0 0 9 5 9 0 17 12 9 13 9 9 16 10 9 1 9
split_gain=19602.4 1821.98 1806.63 653.31 494.066 412.357 336.397 212.425 102.848 49.3533 48.2129 37.5693 27.7277 19.3781 12.6739 12.3301 11.6402 10.7699 8.80169 8.18589 7.70202 6.137 6.1286 5.33276 3.99189 3.86388 3.51014 2.67097 2.17848 2.11535
threshold=91.395500000000013 1839.9608800744811 8.0140000000000011 -0.88832786712676548 637.79964864498118 -0.76001914312257524 8723.9648311064411 1.4450000000000001 29.0825 224.47000000000003 1477.2780000000002 1.1342554997635623 -0.63568362265332079 3.5510639339176078 55.306000000000004 0.26138048597256863 0.45204076379539188 0.45512491855175935 18.017204627343038 1121.9671532992872 3289.7044748983649 0.14223096744083044 2.0955308049045351 -0.34420432610076712 -0.24960004114135251 79.546757759040631 -0.9791968944889905 0.78989987113595073 376.22823471424425 -0.28920142653409026
decision_type=2 2 2 2 2 2 2 2 2 2 2 2 2 2 2 2 2 2 2 2 2 2 2 2 2 2 2 2 2 2
left_child=2 3 7 -2 9 26 20 11 15 25 -6 16 -9 22 21 18 -1 -15 -7 -12 -3 29 -14 -18 -16 -5 -4 -17 -11 -10
right_child=1 6 5 4 10 8 -8 12 14 28 19 -13 13 17 24 27 23 -19 -20 -21 -22 -23 -24 -25 -26 -27 -28 -29 -30 -31
leaf_value=-0.084816675358696983 -0.083233075224120046 0.097760018966271484 -0.084832313878195634 0.013877968591722575 0.0657504342496395 -0.030059542551816226 0.15322332353050533 -0.080252405730160792 -0.017278359191758293 0.037859796472760131 0.079700254602447576 -0.036461737829853187 -0.061658185932939563 -0.046076034432524567 -0.0037548409961163996 -0.013701120313742886 -0.084269510435335551 -0.018341384514101913 -0.017854754885560587 0.096500773511149662 0.11729921038760695 0.0049709869362955343 -0.035745953406606405 -0.069220078516500597 0.008802249216199886 0.025078489846166441 -0.055332094771521428 0 0.048743592094589061 -0.0057090571738427527
leaf_weight=835 28 226 69 76 287 165 228 43 20 128 310 21 168 142 23 45 98 20 113 87 85 42 20 192 138 84 20 20 90 125
leaf_count=835 28 226 69 76 287 165 228 43 20 128 310 21 168 142 23 45 98 20 113 87 85 42 20 192 138 84 20 20 90 125
internal_value=-1.27968e-05 0.0797107 -0.0560384 0.0572604 0.0610676 -0.0187604 0.124866 -0.0748877 -0.0108261 0.0332714 0.0763138 -0.0815179 -0.0553199 -0.0519514 0.000587284 -0.0224611 -0.0822992 -0.0429696 -0.0252879 0.0836906 0.103555 -0.00461933 -0.059264 -0.074681 0.00681109 0.0200638 -0.0792248 -0.00971665 0.0426921 -0.00761772
internal_weight=3948 1629 2319 1090 1062 780 539 1539 691 378 684 1146 393 350 348 343 1125 162 278 397 311 187 188 290 161 160 89 65 218 145
internal_count=3948 1629 2319 1090 1062 780 539 1539 691 378 684 1146 393 350 348 343 1125 162 278 397 311 187 188 290 161 160 89 65 218 145
is_linear=0
shrinkage=0.03


Tree=11
num_leaves=31
num_cat=0
split_feature=0 13 0 9 0 10 12 0 0 9 0 0 0 9 9 0 9 9 5 17 9 9 9 1 9 13 9 0 0 0
split_gain=18452.7 1716.25 1700.39 627.025 496.859 417.307 267.925 152.046 123.933 60.5724 53.1975 46.5284 23.9572 22.4629 18.4417 17.7194 11.2201 7.93371 7.09366 6.62831 5.72802 5.31845 4.18789 4.13187 3.12686 2.94127 2.81834 2.6003 2.28758 2.27701
threshold=91.395500000000013 2027.605165227679 5.7615000000000025 -0.88832786712676548 637.79964864498118 -0.72684112186141236 8723.9648311064411 22.082500000000007 1.1816793790642521 -0.71879526058584786 1625.7550000000003 188.00000000000003 48.135263857448784 0.78989987113595073 0.99999999999995015 12.000500000000001 -0.92774725274725267 0.32983952670012734 0.24625311375400835 1121.9671532992872 0.42719858878682776 0.40228761027803311 -0.21290655010339252 376.22823471424425 -0.15488196192195527 259.03368352280989 -0.27138478193754589 0.49156449646116734 36.890452469070404 67.466500000000011
decision_type=2 2 2 2 2 2 2 2 2 2 2 2 2 2 2 2 2 2 2 2 2 2 2 2 2 2 2 2 2 2
left_child=2 3 8 -2 11 16 -3 15 14 -10 25 26 17 -11 27 20 -4 24 -16 -12 -7 -17 -14 -13 -9 -6 -5 -1 -26 -24
right_child=1 6 5 4 10 7 -8 12 9 13 19 23 22 -15 18 21 -18 -19 -20 -21 -22 -23 29 -25 28 -27 -28 -29 -30 -31
leaf_value=-0.083613341359902699 -0.080822184907978975 0.10237663550323314 -0.081779867234555159 0.0054389969607734154 0.056343831012354177 -0.038598408094988573 0.14864669104330405 -0.017847745786694919 -0.084062413550042486 -0.055420183532617309 0.078850714849123774 0.035652130059167453 -0.0033707851216729194 -0.02599847300964243 -0.074310121010331548 -0.023538078447868083 -0.050957552662917543 0.0036752044344451093 -0.051976812376695519 0.09425446470185081 -0.018194228541105983 -0.0054300220100128131 0.0034360989216080137 0.0472973533646091 -0.010659498468173288 0.068643540385403212 0.019687781950701838 -0.073908824233905129 -0.0019160320011575764 0.011353757789841405
leaf_weight=754 28 266 87 22 101 148 228 50 76 263 292 152 34 33 67 144 27 37 50 100 23 22 81 90 112 236 114 183 48 80
leaf_count=754 28 266 87 22 101 148 228 50 76 263 292 152 34 33 67 144 27 37 50 100 23 22 81 90 112 236 114 183 48 80
internal_value=-1.4237e-05 0.0773358 -0.0543722 0.0568862 0.0604662 -0.0218286 0.12405 -0.0138863 -0.0747014 -0.0591091 0.0749706 0.0322903 -0.00222472 -0.0523397 -0.0801149 -0.0290406 -0.0752473 -0.00846365 -0.0655416 0.0830864 -0.0361501 -0.0213647 0.00552774 0.0402833 -0.0107519 0.0652236 0.0176583 -0.0818308 -0.00825099 0.00760132
internal_weight=3948 1629 2319 1135 1107 893 494 779 1426 372 729 378 442 296 1054 337 114 247 117 392 171 166 195 242 210 337 136 937 160 161
internal_count=3948 1629 2319 1135 1107 893 494 779 1426 372 729 378 442 296 1054 337 114 247 117 392 171 166 195 242 210 337 136 937 160 161
is_linear=0
shrinkage=0.03


Tree=12
num_leaves=31
num_cat=0
split_feature=0 13 0 13 9 9 0 0 0 9 0 16 9 9 0 9 0 0 9 0 5 9 0 12 9 9 13 0 9 0
split_gain=17370 1616.43 1600.82 623.748 480.825 387.069 211.992 153.228 107.398 68.8751 47.5061 26.3972 21.625 20.7518 17.2147 17.07 14.2843 13.5172 7.27697 6.69377 6.54374 5.84145 5.08251 4.50473 3.09474 2.52524 2.28794 2.25964 2.16464 1.9076
threshold=91.395500000000013 714.08270943045102 6.9930000000000012 5570.5520772430727 -0.88832786712676548 -0.63568362265332079 416.01350000000008 1.1816793790642521 27.19351965261728 -0.63568362265332079 3176.1970000000006 134.87784995325052 1.4292976739825538 -0.97641331856282743 835.58900000000006 0.99999999999995015 55.306000000000004 13.003500000000001 0.55044907339448035 4.0235000000000012 0.24625311375400835 0.068752587489466235 2681.0000000000005 8723.9648311064411 0.052115890675783601 0.38865512861819257 59.92741345808485 0.49156449646116734 0.033660894835564011 43.984000000000009
decision_type=2 2 2 2 2 2 2 2 2 2 2 2 2 2 2 2 2 2 2 2 2 2 2 2 2 2 2 2 2 2
left_child=2 4 7 10 -2 13 11 15 17 -9 -3 26 19 -4 -8 27 21 25 28 -11 -17 29 -16 -5 -18 -7 -6 -1 -19 -10
right_child=1 3 5 23 6 8 14 9 16 12 -12 -13 -14 -15 22 20 24 18 -20 -21 -22 -23 -24 -25 -26 -27 -28 -29 -30 -31
leaf_value=-0.081108262671540116 -0.078481127475870063 0.076936186010773108 -0.080111137507837021 0.11417528152465821 0.0080754263268632675 -0.033345532795148236 0.051380738264748031 -0.080000423520475955 -0.010456574068598026 -0.055059296223560615 0.095583582509725956 0.034968059359571417 -0.020934041525269374 -0.047225571682578633 0.064501543702406183 -0.072113601565361021 0.0040184977302766016 -0.022478935420513154 0 -0.041505130174454681 -0.050448082457570466 0.0025890359856363876 0.090169041590257112 0.14420675948197142 0.014322500803121706 -0.017340950872749089 0.01923619885117777 -0.071703610193470255 -0.013372255804992857 -0.002360666590359281
leaf_weight=754 28 369 78 41 36 111 146 90 105 226 276 184 28 37 208 67 118 128 21 88 50 60 21 228 40 23 92 183 62 50
leaf_count=754 28 369 78 41 36 111 146 90 105 226 276 184 28 37 208 67 118 128 21 88 50 60 21 228 40 23 92 183 62 50
internal_value=-1.55325e-05 0.0750308 -0.052755 0.101477 0.0410872 -0.0193827 0.046111 -0.0714165 -0.0111013 -0.0558188 0.0850976 0.0275299 -0.0491531 -0.0702875 0.0613764 -0.0777221 0 -0.0231398 -0.0179033 -0.0514997 -0.0636151 -0.00495768 0.0673676 0.14018 0.00688946 -0.0309695 0.0164167 -0.0793819 -0.0197499 -0.00806917
internal_weight=3948 1629 2319 914 715 833 687 1486 718 432 645 312 342 115 375 1054 373 345 211 314 117 215 229 269 158 134 128 937 190 155
internal_count=3948 1629 2319 914 715 833 687 1486 718 432 645 312 342 115 375 1054 373 345 211 314 117 215 229 269 158 134 128 937 190 155
is_linear=0
shrinkage=0.03


Tree=13
num_leaves=31
num_cat=0
split_feature=0 13 0 9 0 10 13 1 0 0 16 13 9 0 0 9 0 9 9 17 9 13 0 9 12 9 0 13 10 0
split_gain=16351.3 1523.77 1507.12 543.192 401.22 344.99 291.721 176.12 86.2835 41.6777 37.9704 32.018 24.043 18.831 10.5493 10.2839 9.30652 17.9214 7.60459 5.76193 5.2874 4.73803 4.53866 4.48448 4.19867 3.43247 3.24694 2.51611 2.50226 2.37194
threshold=91.395500000000013 1791.2860092815483 8.0140000000000011 -0.88832786712676548 586.08850000000018 -0.76001914312257524 7428.8033340553948 1.4450000000000001 29.0825 1477.2780000000002 134.87784995325052 1.1342554997635623 -0.34420432610076712 3.5510639339176078 55.306000000000004 0.033660894835564011 0.22222027865413227 -0.59311956682923717 0.45512491855175935 1121.9671532992872 0.14223096744083044 2.0955308049045351 14.3895 0.78989987113595073 1265.9960800406977 -0.12205232305956908 17.002000000000002 120.71961269358376 -0.9791968944889905 370.32150000000007
decision_type=2 2 2 2 2 2 2 2 2 2 2 2 2 2 2 2 2 2 2 2 2 2 2 2 2 2 2 2 2 2
left_child=2 3 7 -2 10 28 24 11 15 27 -5 16 -9 21 20 22 -1 -18 -15 -11 -10 -14 -7 26 -3 -16 -17 -6 -4 -12
right_child=1 6 5 4 9 8 -8 12 14 19 29 -13 13 18 25 23 17 -19 -20 -21 -22 -23 -24 -25 -26 -27 -28 -29 -30 -31
leaf_value=-0.078234541935689433 -0.076207885659974189 0.082095206084760633 -0.077536350079945152 0.015937549421607064 0.049893751741398734 -0.032357783628546674 0.13884007126092909 -0.069593721512825266 -0.0069579289963928193 0.072491842812299728 0.033209504963422662 -0.032754769900983027 -0.056086195211221532 -0.040473936383540812 -0.00079744095727801321 -0.021624694151698418 -0.079363660855991086 -0.063574970676191861 -0.016397727983338495 0.08787047837461745 0.004710412906959306 -0.03249697864055634 -0.020849952387313048 0 0.098206353544074795 0.0087465699343294706 -0.0096248189982820736 0.062557847580033021 -0.050587795461927133 0.043585790154300155
leaf_weight=700 28 102 69 128 78 68 239 61 145 299 159 21 163 129 39 52 163 262 20 83 42 20 143 20 213 122 60 222 20 78
leaf_count=700 28 102 69 128 78 68 239 61 145 299 159 21 163 129 39 52 163 262 20 83 42 20 143 20 213 122 60 222 20 78
internal_value=-1.63669e-05 0.0727957 -0.051186 0.051834 0.0553563 -0.0171337 0.11325 -0.0684027 -0.0098721 0.0689761 0.0297069 -0.0744454 -0.0505618 -0.0467764 0.000574844 -0.0205294 -0.0751672 -0.0698729 -0.0375731 0.0761323 -0.00416654 -0.0538618 -0.0248353 -0.013286 0.0933607 0.00625883 -0.0156037 0.0595415 -0.0724432 0.0369193
internal_weight=3948 1629 2319 1075 1047 780 554 1539 691 682 365 1146 393 332 348 343 1125 425 149 382 187 183 211 132 315 161 112 300 89 237
internal_count=3948 1629 2319 1075 1047 780 554 1539 691 682 365 1146 393 332 348 343 1125 425 149 382 187 183 211 132 315 161 112 300 89 237
is_linear=0
shrinkage=0.03


Tree=14
num_leaves=31
num_cat=0
split_feature=0 13 0 9 0 10 12 0 0 9 0 0 9 13 0 9 0 0 0 9 9 9 9 13 9 10 9 9 9 9
split_gain=15392.5 1435.15 1417.94 534.145 443.196 325.052 179.196 166.815 81.3098 73.0509 58.0883 37.33 19.0455 16.9467 9.92568 9.64952 9.30725 9.19342 6.96494 5.00009 3.56564 3.50701 3.39459 2.47188 2.23596 2.16781 2.09197 1.86195 1.64765 1.27894
threshold=91.395500000000013 2325.8545403505714 8.0140000000000011 -0.88832786712676548 801.31900000000007 -0.76001914312257524 8723.9648311064411 1.3430000000000002 29.0825 -0.34420432610076712 224.47000000000003 2144.0000000000005 1.4292976739825538 0.46246187459994315 52.644325615237655 0.26138048597256863 4.0235000000000012 416.01350000000008 18.017204627343038 0.14223096744083044 0.070729725039019323 0.03180426878345944 1.0000000180025095e-35 429.47372120318954 0.78989987113595073 -0.9791968944889905 -0.83428374770212399 -0.30465572957878384 -0.18328318267582519 -0.19171949580853134
decision_type=2 2 2 2 2 2 2 2 2 2 2 2 2 2 2 2 2 2 2 2 2 2 2 2 2 2 2 2 2 2
left_child=2 3 7 -2 10 25 -3 13 15 26 21 23 16 22 19 18 -11 -12 -7 28 27 -5 -1 -6 -17 -4 -9 -16 -10 -20
right_child=1 6 5 4 11 8 -8 9 14 12 17 -13 -14 -15 20 24 -18 -19 29 -21 -22 -23 -24 -25 -26 -27 -28 -29 -30 -31
leaf_value=-0.075777776048733633 -0.074000485107816497 0.095604909432900911 -0.075243489606039868 0.013557604502552664 0.056857214101025316 -0.026710268359586415 0.13575776135557083 -0.077284254321345572 -0.013474372974463871 -0.050184914566459453 0.034483721663981871 0.080912230610847471 -0.017223049312829971 -0.050994194930791853 -0.0043841378424655311 -0.012208097846773656 -0.036768448130559114 0.04762586917616983 -0.024117587581276891 0.0043318880179033766 0.013634405103398532 0.02465998208948544 -0.067574846414958728 0.067673850894350351 0 -0.049142430509839741 -0.057205048458916802 0.0046291468259138206 -0.004770427797955926 -0.013049324007479698
leaf_weight=779 28 221 69 105 121 165 228 80 34 190 153 269 29 49 21 45 117 133 23 40 40 55 254 316 20 20 41 114 99 90
leaf_count=779 28 221 69 105 121 165 228 80 34 190 153 269 29 49 21 45 117 133 23 40 40 55 254 316 20 20 41 114 99 90
internal_value=-1.75558e-05 0.0706274 -0.0496647 0.0531329 0.0563104 -0.0166335 0.116317 -0.0663645 -0.00958342 -0.0507059 0.0326631 0.0711393 -0.0430287 -0.0728975 0.00055551 -0.0199291 -0.0453052 0.0408445 -0.022438 -0.00443126 0.00565291 0.0176898 -0.0738571 0.064884 -0.00856646 -0.0703226 -0.0712511 0.00298457 -0.00730333 -0.0157571
internal_weight=3948 1629 2319 1180 1152 780 449 1539 691 457 446 706 336 1082 348 343 307 286 278 173 175 160 1033 437 65 89 121 135 133 113
internal_count=3948 1629 2319 1180 1152 780 449 1539 691 457 446 706 336 1082 348 343 307 286 278 173 175 160 1033 437 65 89 121 135 133 113
is_linear=0
shrinkage=0.03


Tree=15
num_leaves=31
num_cat=0
split_feature=0 0 13 9 0 10 12 0 0 9 0 0 9 9 0 9 0 0 13 9 0 0 9 9 0 9 10 9 9 9
split_gain=14490.1 1382.1 1320.27 508.625 380.729 311.757 168.422 156.571 81.6451 68.7723 41.3665 36.7642 17.8249 15.9214 10.6667 9.18426 8.66482 6.90067 5.81814 4.73672 4.6376 4.11954 3.9469 3.48886 2.92014 2.21973 1.85983 1.80823 1.79425 1.62088
threshold=97.500000000000014 8.0140000000000011 2325.8545403505714 -0.63568362265332079 773.13300000000015 -0.76001914312257524 8723.9648311064411 1.3430000000000002 29.0825 -0.34420432610076712 224.47000000000003 1925.6565000000003 1.4292976739825538 0.99999999999995015 55.306000000000004 0.033660894835564011 4.0235000000000012 416.01350000000008 0.86900918721751785 0.068752587489466235 0.49156449646116734 14.3895 0.78989987113595073 0.037619884966561108 17.002000000000002 0.03180426878345944 -0.9791968944889905 -0.83428374770212399 -0.30465572957878384 -0.28920142653409026
decision_type=2 2 2 2 2 2 2 2 2 2 2 2 2 2 2 2 2 2 2 2 2 2 2 2 2 2 2 2 2 2
left_child=1 7 3 -2 10 26 -4 13 15 27 25 -6 16 20 19 21 -11 -12 -15 29 -1 -7 24 28 -17 -5 -3 -9 -16 -10
right_child=2 5 6 4 11 8 -8 9 14 12 17 -13 -14 18 23 22 -18 -19 -20 -21 -22 -23 -24 -25 -26 -27 -28 -29 -30 -31
leaf_value=-0.074152445275262491 -0.06048525921760925 -0.073018432617187504 0.092749682117152843 0.014644592901872051 0.061843788144576486 -0.030611423901889635 0.13170280882364799 -0.074994352040467435 -0.015431585822786602 -0.048687250033723116 0.033677128009936386 0.077207753836551554 -0.016723580807447434 -0.061365192677035475 -0.0038453528149561449 -0.02037438908275568 -0.035674742884555105 0.045903264653584186 -0.035638328953222789 0.0034376718116422684 -0.065013614211763646 -0.019607701301574708 0 0.013138980177395483 -0.0089455196285834065 0.024932081133127212 -0.047738360251699176 -0.055529756716319489 0.0049871339344650188 -0.0050698633137373971
leaf_weight=754 34 69 221 92 397 68 228 80 20 190 152 320 29 98 21 52 117 120 21 51 209 143 20 50 60 49 20 41 106 116
leaf_count=754 34 69 221 92 397 68 228 80 20 190 152 320 29 98 21 52 117 120 21 51 209 143 20 50 60 49 20 41 106 116
internal_value=-1.93406e-05 -0.047788 0.0690994 0.0521167 0.0555818 -0.0156188 0.112845 -0.0643861 -0.00886214 -0.0492083 0.0323803 0.0688406 -0.0417525 -0.0707176 0.000960644 -0.019346 -0.0439574 0.0393293 -0.05741 -0.00392808 -0.0722697 -0.0234231 -0.0124762 0.00628715 -0.0146506 0.0185813 -0.0682644 -0.069154 0.00327364 -0.00691414
internal_weight=3948 2335 1613 1164 1130 796 449 1539 707 457 413 717 336 1082 364 343 307 272 119 187 963 211 132 177 112 141 89 121 127 136
internal_count=3948 2335 1613 1164 1130 796 449 1539 707 457 413 717 336 1082 364 343 307 272 119 187 963 211 132 177 112 141 89 121 127 136
is_linear=0
shrinkage=0.03


Tree=16
num_leaves=31
num_cat=0
split_feature=0 0 13 9 0 10 12 0 0 9 0 0 9 9 5 0 0 9 0 9 0 0 9 9 9 0 13 9 9 10
split_gain=13639.8 1300.35 1242.48 481.525 366.383 293.738 158.29 147.091 76.9338 66.3165 44.0471 33.0796 19.9689 14.4908 14.2488 10.0484 8.83073 8.59701 7.95704 4.51769 4.43053 3.84001 3.7189 3.29221 3.28248 2.72335 2.36686 1.65291 1.63827 1.5765
threshold=97.500000000000014 8.0140000000000011 2325.8545403505714 -0.88832786712676548 801.31900000000007 -0.76001914312257524 8723.9648311064411 1.1816793790642521 29.0825 -0.78190783361671701 224.47000000000003 2144.0000000000005 0.78989987113595073 7.6818181818181959 0.21491574867967436 55.306000000000004 3.8676913091908571 0.033660894835564011 416.01350000000008 -0.043966296321713109 0.27400000000000019 14.3895 0.78989987113595073 -0.18073787363459246 0.020393830596834531 17.002000000000002 473.72661011801347 -0.30465572957878384 0.28571428571429663 -0.9791968944889905
decision_type=2 2 2 2 2 2 2 2 2 2 2 2 2 2 2 2 2 2 2 2 2 2 2 2 2 2 2 2 2 2
left_child=1 7 3 -2 10 29 -4 13 17 -9 23 26 16 20 -15 19 -11 21 -12 -10 -1 -7 25 -5 27 -19 -6 -17 -21 -3
right_child=2 5 6 4 11 8 -8 9 15 12 18 -13 -14 14 -16 24 -18 22 -20 28 -22 -23 -24 -25 -26 -27 -28 -29 -30 -31
leaf_value=-0.072187899287656052 -0.070105029837838534 -0.070859176601682394 0.089979724014127571 0.008132623832386273 0.053787557861410581 -0.029706390448238539 0.12776898841149942 -0.072286640379455064 -0.0092189923266414557 -0.050279529561701508 0.03247051694200604 0.076186199665069565 -0.020381001114118391 -0.062843511942270641 -0.027431921064853666 -0.0037352358668365261 -0.038323629575273008 -0.019774689876808308 0.044821928035078652 -0.0020509971875580959 -0.064312191400306903 -0.019023555206755798 0 0.020396190717398562 0.0124814369281133 -0.0086815536229825404 0.063911425634926439 0.0047514055244055964 0.0061587735842913386 -0.046374407325472149
leaf_weight=694 28 69 221 38 132 68 228 90 79 193 153 269 40 36 23 21 162 52 133 79 301 143 20 106 53 60 305 103 29 20
leaf_count=694 28 69 221 38 132 68 228 90 79 193 153 269 40 36 23 21 162 52 133 79 301 143 20 106 53 60 305 103 29 20
internal_value=-2.22732e-05 -0.0463684 0.0670376 0.0505614 0.053621 -0.0151637 0.109477 -0.0624683 -0.00860374 -0.0483636 0.0315456 0.0669603 -0.0426682 -0.0688781 -0.0502263 0.00092913 -0.0450308 -0.0187808 0.038455 -0.00381296 -0.0699025 -0.0227318 -0.0121161 0.0174453 0.00610095 -0.0142268 0.0610517 0.00305577 0 -0.0662667
internal_weight=3948 2335 1613 1164 1136 796 449 1539 707 485 430 706 395 1054 59 364 355 343 286 187 995 211 132 144 177 112 437 124 108 89
internal_count=3948 2335 1613 1164 1136 796 449 1539 707 485 430 706 395 1054 59 364 355 343 286 187 995 211 132 144 177 112 437 124 108 89
is_linear=0
shrinkage=0.03


Tree=17
num_leaves=31
num_cat=0
split_feature=0 0 13 9 0 10 12 0 0 9 1 0 9 9 13 0 0 0 0 9 9 9 9 9 13 9 9 0 0 9
split_gain=12839.5 1223.36 1169.2 453.807 344.565 276.826 148.76 138.247 68.0229 61.6745 41.4104 30.9837 15.6102 15.455 14.3451 10.6301 7.41797 6.85554 6.76118 4.51861 4.32901 2.99422 2.97917 2.60408 2.1109 1.96964 1.90462 1.88566 1.43385 0.915406
threshold=97.500000000000014 8.0140000000000011 2325.8545403505714 -0.88832786712676548 801.31900000000007 -0.59925915515579808 8723.9648311064411 1.3430000000000002 28.025500000000005 -0.33333333333333326 236.58400000000003 2144.0000000000005 -0.92774725274725267 1.4292976739825538 0.46246187459994315 55.306000000000004 4.0235000000000012 416.01350000000008 18.017204627343038 0.63505152401122089 0.068752587489466235 -0.28183537463976954 1.0000000180025095e-35 0.087710883912204843 429.47372120318954 -0.83428374770212399 0.14223096744083044 130.50000000000003 43.984000000000009 -0.24960004114135251
decision_type=2 2 2 2 2 2 2 2 2 2 2 2 2 2 2 2 2 2 2 2 2 2 2 2 2 2 2 2 2 2
left_child=1 7 3 -2 10 12 -4 14 18 25 21 24 -3 16 22 20 -11 -12 19 -7 28 -5 -1 29 -6 -9 -20 -23 -10 -17
right_child=2 5 6 4 11 8 -8 9 15 13 17 -13 -14 -15 -16 23 -18 -19 26 -21 -22 27 -24 -25 -26 -27 -28 -29 -30 -31
leaf_value=-0.069238651225200065 -0.068074406837594914 -0.068051823754059645 0.087292492357460227 0.0063585917252515041 0.051751275468068042 -0.023070243442996165 0.12395265621909929 -0.070630471220722912 -0.0088026920681999569 -0.045644238760127104 0.031730257738126467 0.073909077617857186 -0.037053484214890388 -0.015647548049688341 -0.046300541245937341 -0.00045768442696758681 -0.03338119644385118 0.043613690291356318 -0.013948321063467795 -0.0054936914358820234 0.0031295937880535018 0.013799619997962045 -0.061581392884254453 0.014052076296259959 0.061827121638349171 -0.052503048435170598 -0.0037636955251747909 0.023894144866777503 -0.0015898467501734984 0.0052610812570993643
leaf_weight=779 28 75 221 27 121 177 228 80 92 186 145 269 30 29 49 20 116 132 93 20 54 58 254 35 316 46 32 68 50 118
leaf_count=779 28 75 221 27 121 177 228 80 92 186 145 269 30 29 49 20 116 132 93 20 54 58 254 35 316 46 32 68 50 118
internal_value=-2.38882e-05 -0.04499 0.0650387 0.0490543 0.052025 -0.0147216 0.106209 -0.0606063 -0.00773481 -0.0463302 0.0306129 0.0649622 -0.0599113 -0.0390678 -0.06656 0.000985749 -0.0411587 0.0376375 -0.0177932 -0.0214741 -0.00369343 0.0175384 -0.0674462 0.00645018 0.0592303 -0.0647143 -0.0116297 0.0196289 -0.00650163 0.00421912
internal_weight=3948 2335 1613 1164 1136 796 449 1539 691 457 430 706 105 331 1082 369 302 277 322 197 196 153 1033 173 437 126 125 126 142 138
internal_count=3948 2335 1613 1164 1136 796 449 1539 691 457 430 706 105 331 1082 369 302 277 322 197 196 153 1033 173 437 126 125 126 142 138
is_linear=0
shrinkage=0.03


Tree=18
num_leaves=31
num_cat=0
split_feature=0 13 0 13 9 9 0 0 0 10 0 16 9 0 9 5 16 9 9 13 0 9 0 0 9 13 0 9 9 9
split_gain=12086.6 1128.24 1111.98 431.071 342.042 273.721 151.713 105.975 75.3496 51.2157 26.0774 18.559 16.8908 14.301 14.0813 13.3971 13.0181 12.9367 7.82661 7.23685 6.28472 4.85882 4.77312 3.43927 3.38272 1.85005 1.72848 1.19578 0.770107 0.602471
threshold=91.395500000000013 766.46359260094448 6.9930000000000012 4750.7940226014289 -0.88832786712676548 -0.63568362265332079 416.01350000000008 1.0012568413375613 23.228000000000002 -0.7860472702957132 3176.1970000000006 134.87784995325052 1.4292976739825538 43.984000000000009 7.6818181818181959 0.21491574867967436 1884.3405211612996 -0.97641331856282743 0.88267429218533666 10790.437771595833 2.8925000000000005 0.55044907339448035 13.003500000000001 801.31900000000007 0.023161622168265564 63.992775226965264 64.612499380624016 -0.060487791846504928 -0.19171949580853134 -0.21290655010339252
decision_type=2 2 2 2 2 2 2 2 2 2 2 2 2 2 2 2 2 2 2 2 2 2 2 2 2 2 2 2 2 2
left_child=2 4 7 10 -2 17 11 14 18 -9 -3 25 20 21 -1 -16 23 -4 22 -5 -11 27 -7 -8 26 -6 -15 -10 -13 -28
right_child=1 3 5 19 6 8 16 9 13 12 -12 28 -14 24 15 -17 -18 -19 -20 -21 -22 -23 -24 -25 -26 -27 29 -29 -30 -31
leaf_value=-0.066239601467390483 -0.066102594753791544 0.06420992456019764 -0.066994768064233323 0.096834699130449134 0.0068529412358306176 -0.027153374361991882 0.042196999190013795 -0.068851690694187465 -0.012383589161865747 -0.049332648126239123 0.078933395393022146 0.017158686707594562 -0.017123338025191732 -0.0013465080973294721 -0.059211648992590002 -0.025044697560369967 0.068072688129712941 -0.040071686474900496 -0.001025510100381715 0.12048406308492024 -0.038668545824678047 0.0056319224639711047 -0.017717563258974174 0.052338907641982568 0.0098441230776635091 0.016453813951590963 0 -0.0060747906291303607 0.03043953963843259 0.0061320055978464297
leaf_weight=953 28 354 78 60 42 124 133 88 66 175 261 20 28 81 36 23 52 37 20 224 183 21 151 205 65 86 20 110 164 60
leaf_count=953 28 354 78 60 42 124 133 88 66 175 261 20 28 81 36 23 52 37 20 224 183 21 151 205 65 86 20 110 164 60
internal_value=-2.47266e-05 0.0625749 -0.0440192 0.0850899 0.0347279 -0.0161969 0.0388806 -0.0595739 -0.00922521 -0.0473935 0.0706251 0.023 -0.0422587 -0.00102393 -0.0651969 -0.0470317 0.051417 -0.0590113 -0.0208405 0.11595 -0.0440879 -0.0069702 -0.0221639 0.0485729 0.00403504 0.0136136 0.00145828 -0.00866668 0.0292587 0.00465006
internal_weight=3948 1629 2319 899 730 833 702 1486 718 474 615 312 386 423 1012 59 390 115 295 284 358 197 275 338 226 128 161 176 184 80
internal_count=3948 1629 2319 899 730 833 702 1486 718 474 615 312 386 423 1012 59 390 115 295 284 358 197 275 338 226 128 161 176 184 80
is_linear=0
shrinkage=0.03


Tree=19
num_leaves=31
num_cat=0
split_feature=0 0 13 9 0 10 0 12 0 9 0 0 9 9 0 0 9 5 0 0 9 13 9 9 9 9 0 0 9 9
split_gain=11378 1083.59 1037.93 412.048 318.559 245.928 121.92 97.2806 64.6209 56.3531 35.5972 32.3919 14.4247 12.3049 8.65894 8.30461 7.60791 5.88062 4.99069 4.92276 4.76507 4.32252 2.6909 2.4371 2.15452 1.89686 1.69881 1.636 1.39262 0.998003
threshold=97.500000000000014 8.0140000000000011 2837.1587320360927 -0.63568362265332079 773.13300000000015 -0.76001914312257524 1.1816793790642521 8723.9648311064411 29.0825 -0.34420432610076712 2469.0000000000005 224.47000000000003 0.78989987113595073 0.99999999999995015 64.612499380624016 3.5510639339176078 -0.11245283801152621 0.24625311375400835 416.01350000000008 18.017204627343038 0.13137030787931572 511.15859027888149 0.63505152401122089 -0.35559587712003216 -0.12936007324248064 0.03180426878345944 0.49156449646116734 41.698500000000003 0.35632079563294466 0.1239464790158077
decision_type=2 2 2 2 2 2 2 2 2 2 2 2 2 2 2 2 2 2 2 2 2 2 2 2 2 2 2 2 2 2
left_child=1 6 3 -2 11 -3 13 -4 16 -8 21 25 15 26 20 -11 -7 -15 -13 22 23 -6 -18 -10 -16 -5 -1 -25 -21 -26
right_child=2 5 7 4 10 8 9 -9 14 12 -12 18 -14 17 24 -17 19 -19 -20 28 -22 -23 -24 27 29 -27 -28 -29 -30 -31
leaf_value=-0.06577286573277405 -0.054169943532241235 -0.06062760949134826 0.084346120034234001 0.012824854434978578 0.049665136510812787 -0.025238043576478957 -0.0617909138424452 0.11666396731372482 -0.014987917095422744 -0.045214740128018134 0.071964939631611463 0.029923666844180984 -0.018488462138466718 -0.058513387020896458 0 -0.033198507263952369 -0.019570802347018166 -0.039187888397889982 0.040660193971365936 -0.010164335486154223 0.0050030974811789662 0.059441910172973927 -0.0050762230211070609 -0.0066369819901883603 0.0069102877249511384 0.022353802710771562 -0.057754352280627121 -0.0001797260533705161 0 0.016529183983802792
leaf_weight=754 34 89 176 92 157 89 128 228 20 171 248 152 40 67 33 146 129 50 120 85 54 357 20 74 77 49 183 86 20 20
leaf_count=754 34 89 176 92 157 89 128 228 20 171 248 152 40 67 33 146 129 50 120 85 54 357 20 74 77 49 183 86 20 20
internal_value=-2.37959e-05 -0.0423538 0.0612234 0.0471977 0.0502 -0.0138639 -0.0570513 0.102902 -0.0078574 -0.0441897 0.0617386 0.0287406 -0.0376401 -0.0628937 0.000872888 -0.0398966 -0.017185 -0.050911 0.0349018 -0.0141577 -0.00248079 0.0566161 -0.017872 -0.00490694 0.00711137 0.0164817 -0.064302 -0.00337522 -0.00848507 0.00934812
internal_weight=3948 2335 1613 1209 1175 796 1539 404 707 485 762 413 357 1054 364 317 343 117 272 254 234 514 149 180 130 141 937 160 105 97
internal_count=3948 2335 1613 1209 1175 796 1539 404 707 485 762 413 357 1054 364 317 343 117 272 254 234 514 149 180 130 141 937 160 105 97
is_linear=0
shrinkage=0.03


Tree=20
num_leaves=31
num_cat=0
split_feature=0 13 0 9 0 10 13 0 0 10 0 0 9 9 9 5 0 0 0 9 9 17 9 9 9 13 9 13 9 13
split_gain=10710.5 1000.15 984.866 358.067 249.091 243.437 211.319 93.3696 66.4987 46.0193 25.1223 24.488 14.812 12.7426 12.4734 12.1803 9.05779 8.23217 5.49036 4.91929 3.75141 3.49055 2.24008 2.20557 1.93004 1.54487 1.29886 1.16107 1.15441 0.976724
threshold=91.395500000000013 1621.2464297171721 6.9930000000000012 -0.88832786712676548 586.08850000000018 -0.59925915515579808 5570.5520772430727 1.0012568413375613 27.19351965261728 -0.7860472702957132 188.00000000000003 1477.2780000000002 1.4292976739825538 -0.97641331856282743 7.6818181818181959 0.21491574867967436 52.644325615237655 13.003500000000001 2.8925000000000005 0.55044907339448035 0.14223096744083044 1121.9671532992872 -0.21818335871120823 0.087710883912204843 0.15784754773964207 120.71961269358376 0.033660894835564011 32.055011838265301 0.32983952670012734 57.105817219364333
decision_type=2 2 2 2 2 2 2 2 2 2 2 2 2 2 2 2 2 2 2 2 2 2 2 2 2 2 2 2 2 2
left_child=2 3 7 -2 10 13 -3 14 17 -9 24 25 18 -4 -1 -16 20 28 -11 26 27 -13 -12 -18 29 -6 -19 -10 -7 -5
right_child=1 6 5 4 11 8 -8 9 16 12 22 21 -14 -15 15 -17 23 19 -20 -21 -22 -23 -24 -25 -26 -27 -28 -29 -30 -31
leaf_value=-0.062348022824563309 -0.062618835753407973 0.072942702736281131 -0.063211468609073493 0.0051958213031694693 0.039947747437259817 -0.026288486636347242 0.11035184235042995 -0.064988695557197815 -0.0077671669812632666 -0.046423976841298009 0.016996708734333513 0.058243330098847121 -0.016091823685785822 -0.037341520227491855 -0.055775351266603206 -0.023173853885382414 0.0031968205498086044 -0.01765616190987964 -0.036346569035364235 0 0.0027303158579280178 0.071803295413653059 0.031562543968552521 0.012312651693820953 0.023152920387007971 0.050552166695017449 -0.010244936332816168 -7.8531410563887369e-05 -0.014373555228941969 0.013275323093868792
leaf_weight=953 28 315 78 36 78 107 269 88 123 175 24 281 28 39 36 23 137 128 183 21 48 71 205 34 21 222 62 30 26 79
leaf_count=953 28 315 78 36 78 107 269 88 123 175 24 281 28 39 36 23 137 128 183 21 48 71 205 34 21 222 62 30 26 79
internal_value=-2.45266e-05 0.0589036 -0.0414395 0.0412122 0.044159 -0.0152527 0.0903844 -0.0560786 -0.00861006 -0.0446296 0.0240722 0.0553039 -0.0397547 -0.0552319 -0.0613622 -0.0441643 0.000108114 -0.0180978 -0.0414718 -0.0139457 -0.00411771 0.0612591 0.030247 0.00524479 0.0133112 0.0480366 -0.0154611 -0.0064647 -0.0243078 0.0110713
internal_weight=3948 1629 2319 1045 1017 833 584 1486 716 474 365 652 386 117 1012 59 372 344 358 211 201 352 229 171 136 300 190 153 133 115
internal_count=3948 1629 2319 1045 1017 833 584 1486 716 474 365 652 386 117 1012 59 372 344 358 211 201 352 229 171 136 300 190 153 133 115
is_linear=0
shrinkage=0.03


Tree=21
num_leaves=31
num_cat=0
split_feature=0 0 13 9 0 10 0 12 9 0 0 1 13 9 0 9 0 9 9 0 0 0 13 9 9 9 9 9 0 9
split_gain=10082.7 994.481 901.573 369.567 268.325 189.94 139.95 86.2668 60.0449 44.8952 30.4144 27.2956 20.7642 13.5797 9.3448 8.40435 7.36386 9.93119 6.49617 5.30225 4.87677 4.44579 4.06521 2.67478 1.89868 1.59735 1.56289 1.53668 1.13762 0.82929
threshold=103.18400000000001 11.022500000000003 2837.1587320360927 -0.88832786712676548 801.31900000000007 -0.76001914312257524 1.9999999999999984 8723.9648311064411 -0.47604073075771181 35.085500000000003 2602.0000000000005 249.50000000000003 0.97053763650708758 1.4292976739825538 4.0235000000000012 0.78989987113595073 0.22222027865413227 -0.5044934336807152 -0.40350121028667707 67.466500000000011 20.895780715888041 416.01350000000008 511.15859027888149 -0.31678157945728191 -0.23016036860684894 -0.99803638322541788 0.20438400662653958 0.15389768180313149 166.53893713386995 -0.11245283801152621
decision_type=2 2 2 2 2 2 2 2 2 2 2 2 2 2 2 2 2 2 2 2 2 2 2 2 2 2 2 2 2 2
left_child=1 6 3 -2 11 25 12 -4 -8 15 22 23 16 14 -10 20 -1 -18 -11 26 29 -13 -6 -5 -22 -3 -20 -21 -25 -7
right_child=2 5 7 4 10 9 8 -9 13 18 -12 21 -14 -15 -16 -17 17 -19 19 27 24 -23 -24 28 -26 -27 -28 -29 -30 -31
leaf_value=-0.061682051446507957 -0.060805051655604923 -0.061439109643300377 0.079394153093887587 0.0052138351288158443 0.046689020922320003 -0.023907327624254446 -0.058266598707751222 0.1098832316377798 -0.039879547446787712 -0.011550969979367576 0.068416369826392792 0.028383323629112802 -0.026116165369749068 -0.0094501480749911732 -0.028207840277203199 0.0046004926572952949 -0.062820049656762023 -0.049832787919622742 -0.00081947392497871377 0.0065053604006329001 -0.019403785643252458 0.038692217814294917 0.05623756174047264 0.01476652819859354 -0.0081863209803370723 -0.038625868303435187 0.0064451663667568935 0.016928453743457795 0.023838128453493118 -0.015667562860995531
leaf_weight=713 28 53 176 23 148 42 113 228 166 25 225 135 23 26 173 20 134 267 143 101 21 132 378 75 140 20 31 21 49 119
leaf_count=713 28 53 176 23 148 42 113 228 166 25 225 135 23 26 173 20 134 267 143 101 21 132 378 75 140 20 31 21 49 119
internal_value=-2.4291e-05 -0.0395395 0.058117 0.0448869 0.0475028 -0.0105667 -0.0527099 0.0969038 -0.0387382 -0.00541985 0.0582351 0.0278687 -0.0585182 -0.0324678 -0.0341119 -0.0129815 -0.0591362 -0.0543928 0.00255866 0.00388624 -0.0141773 0.0337172 0.0537015 0.0168871 -0.0099454 -0.0562007 0.000332806 0.00866645 0.0187533 -0.0181366
internal_weight=3948 2351 1597 1193 1165 736 1615 404 478 663 751 414 1137 365 339 342 1114 401 321 296 322 267 526 147 161 73 174 122 124 161
internal_count=3948 2351 1597 1193 1165 736 1615 404 478 663 751 414 1137 365 339 342 1114 401 321 296 322 267 526 147 161 73 174 122 124 161
is_linear=0
shrinkage=0.03


Tree=22
num_leaves=31
num_cat=0
split_feature=0 0 13 9 0 10 2 12 0 0 0 13 9 9 0 0 0 10 9 9 0 0 9 9 12 9 9 0 9 9
split_gain=9491.34 903.46 867.081 348.626 270.713 206.195 101.339 71.2425 50.5311 31.8262 26.848 21.1604 20.731 11.5281 9.72872 8.15244 7.05034 13.4745 5.7105 5.07238 5.25278 4.08458 3.94199 2.80501 2.06752 1.97685 1.5967 1.32241 0.745351 0.588328
threshold=97.500000000000014 8.0140000000000011 2951.7506314333041 -0.63568362265332079 773.13300000000015 -0.59925915515579808 1.5025000000000004 8723.9648311064411 28.025500000000005 1925.6565000000003 224.47000000000003 1.1342554997635623 -0.2022784527906866 -0.92774725274725267 3.5510639339176078 60.115888713774808 0.22222027865413227 -0.59925915515579808 0.48809957057927195 0.66666666666666696 18.017204627343038 416.01350000000008 0.13137030787931572 0.63505152401122089 1704.3641631200014 0.099293728035977816 0.03180426878345944 43.984000000000009 -0.23705972947636247 0.50915396977738314
decision_type=2 2 2 2 2 2 2 2 2 2 2 2 2 2 2 2 2 2 2 2 2 2 2 2 2 2 2 2 2 2
left_child=1 6 3 -2 10 13 11 -4 19 -6 26 16 -8 -3 23 22 -1 -18 -16 20 -7 -12 27 -14 -11 28 -5 -10 -17 -24
right_child=2 5 7 4 9 8 12 -9 15 24 21 -13 14 -15 18 25 17 -19 -20 -21 -22 -23 29 -25 -26 -27 -28 -29 -30 -31
leaf_value=-0.059907772315412076 -0.04981788935352649 -0.058741453509581709 0.077782583810664982 0.011662715192764036 0.049912949938270917 -0.019796055797692183 -0.051930208270964416 0.10660112757870203 -0.0073372030069092002 0.058877203635570717 0.027307372122418645 -0.026709169724157877 -0.042447688469519983 -0.031714488277512214 -0.029702844761185725 0 -0.061031584739685056 -0.04753211116825027 -0.0092363659824643805 -0.00031817346112802622 -0.010688304648805064 0.037185743155558247 0.00043328879031297917 -0.026979805511586803 0.069076349735260001 0.01446771225103965 0.020526457017660139 -0.0012687809323542751 0.00548312164594115 0.0080055630393326277
leaf_weight=703 34 75 161 92 397 181 91 228 98 222 152 27 129 30 117 23 159 260 20 23 118 120 33 33 158 25 49 69 100 21
leaf_count=703 34 75 161 92 397 181 91 228 98 222 152 27 129 30 117 23 159 260 20 23 118 120 33 33 158 25 49 69 100 21
internal_value=-2.45552e-05 -0.0386868 0.0559141 0.0434065 0.0461348 -0.0126681 -0.0521077 0.0949806 -0.00663149 0.0566043 0.0262765 -0.0566816 -0.038445 -0.0516745 -0.0340814 0.000874144 -0.0573517 -0.0528594 -0.027021 -0.0153016 -0.0163493 0.0318956 -0.00267722 -0.0396657 0.0633668 0.00636092 0.0150772 -0.00503094 0.00436787 0.00401553
internal_weight=3948 2335 1613 1224 1190 796 1539 389 691 777 413 1149 390 105 299 369 1122 419 137 322 299 272 221 162 380 148 141 167 123 54
internal_count=3948 2335 1613 1224 1190 796 1539 389 691 777 413 1149 390 105 299 369 1122 419 137 322 299 272 221 162 380 148 141 167 123 54
is_linear=0
shrinkage=0.03


Tree=23
num_leaves=31
num_cat=0
split_feature=0 0 13 9 0 10 0 9 0 0 13 1 13 9 0 9 0 9 9 0 0 0 13 9 9 9 9 9 9 9
split_gain=8934.86 881.455 801.01 339.629 266.364 168.759 124.069 53.3399 39.9118 39.4078 27.7765 24.0013 18.323 12.1525 8.34458 7.56253 6.49622 5.78955 5.11788 4.69798 4.37709 4.21857 4.19699 1.83309 1.75123 1.40735 1.3507 1.28807 0.864452 0.785037
threshold=103.18400000000001 11.022500000000003 3564.4386284924253 -0.88832786712676548 801.31900000000007 -0.76001914312257524 1.9999999999999984 -0.47604073075771181 35.085500000000003 2681.0000000000005 10790.437771595833 236.58400000000003 0.97053763650708758 2.0886063694201851 4.0235000000000012 0.78989987113595073 0.87598347114088393 -0.40350121028667707 -0.56326387686682 67.466500000000011 416.01350000000008 20.895780715888041 714.08270943045102 -0.31678157945728191 -0.12205232305956908 0.20438400662653958 0.15389768180313149 -0.99803638322541788 3.5075757575757578 -0.11245283801152621
decision_type=2 2 2 2 2 2 2 2 2 2 2 2 2 2 2 2 2 2 2 2 2 2 2 2 2 2 2 2 2 2
left_child=1 6 3 -2 11 27 12 -8 15 22 -4 23 16 14 -9 21 28 -10 -18 25 -13 29 -6 -5 -23 -19 -21 -3 -1 -7
right_child=2 5 10 4 9 8 7 13 17 -11 -12 20 -14 -15 -16 -17 18 19 -20 26 -22 24 -24 -25 -26 -27 -28 -29 -30 -31
leaf_value=-0.0578698195896621 -0.057600802635324411 -0.057900455064243739 0.080064939237990462 0.0049841862998943288 0.04555324235477963 -0.022633542321449103 -0.054880863177148922 -0.037355170331057716 -0.010874142955021503 0.065608701307198092 0.10363973630269367 0.026530968027878299 -0.024507530704140662 -0.0061842559159479352 -0.026370136409492814 0.0044067942670413425 -0.059058897454163123 -0.00075349366978419614 -0.043605344962905829 0.0061285520377842816 0.036418169566563192 -0.015404357782432009 0.0540272106658021 0.017049821782214886 -0.0069703133445818063 0.0061337586547597312 0.015996334132823076 -0.036307263714926583 -0.047125911495515274 -0.014670074760913849
leaf_weight=847 28 53 105 22 221 42 113 168 25 289 224 145 23 21 176 20 57 143 141 101 132 41 316 115 120 31 21 20 69 119
leaf_count=847 28 53 105 22 221 42 113 168 25 289 224 145 23 21 176 20 57 143 141 101 132 41 316 115 120 31 21 20 69 119
internal_value=-2.49579e-05 -0.0372234 0.0547065 0.0437786 0.0461366 -0.00994368 -0.0496231 -0.0364572 -0.00508949 0.0560169 0.0964722 0.026264 -0.0550949 -0.0305371 -0.0319146 -0.0122201 -0.0556769 0.00242882 -0.0484793 0.00368623 0.0314645 -0.0133562 0.0506867 0.0153798 -0.00938513 0.000330155 0.00818725 -0.0529605 -0.0571455 -0.0170596
internal_weight=3948 2351 1597 1268 1240 736 1615 478 663 826 329 414 1137 365 344 342 1114 321 198 296 277 322 537 137 161 174 122 73 916 161
internal_count=3948 2351 1597 1268 1240 736 1615 478 663 826 329 414 1137 365 344 342 1114 321 198 296 277 322 537 137 161 174 122 73 916 161
is_linear=0
shrinkage=0.03


Tree=24
num_leaves=31
num_cat=0
split_feature=0 13 0 13 9 10 0 0 0 9 0 9 0 9 16 9 0 0 0 13 9 9 9 9 0 9 13 9 0 9
split_gain=8411.1 786.934 773.274 302.79 242.61 192.646 104.363 73.3737 52.3632 43.5476 17.6302 14.819 13.0141 9.82811 9.6371 8.85464 7.68258 7.22893 6.35481 4.67413 4.02243 3.11084 2.30682 1.75721 1.4799 1.07283 0.882037 0.874613 0.621003 0.54838
threshold=91.395500000000013 766.46359260094448 6.9930000000000012 4750.7940226014289 -0.88832786712676548 -0.59925915515579808 416.01350000000008 0.87598347114088393 27.19351965261728 -0.59311956682923717 3620.9880000000007 1.4292976739825538 166.53893713386995 -0.97641331856282743 1884.3405211612996 14.066853715170277 2.8925000000000005 52.644325615237655 13.003500000000001 17302.471274181949 0.168132619196001 0.075745866704135648 -0.21818335871120823 0.070729725039019323 801.31900000000007 -0.11245283801152621 32.055011838265301 0.32983952670012734 67.466500000000011 0.58060181094625407
decision_type=2 2 2 2 2 2 2 2 2 2 2 2 2 2 2 2 2 2 2 2 2 2 2 2 2 2 2 2 2 2
left_child=2 4 7 10 -2 13 12 15 18 -9 -3 16 25 -4 24 -1 -11 21 27 -5 -20 26 -14 28 -8 -6 -10 -7 -19 -22
right_child=1 3 5 19 6 8 14 9 17 11 -12 -13 22 -15 -16 -17 -18 23 20 -21 29 -23 -24 -25 -26 -27 -28 -29 -30 -31
leaf_value=-0.055846335219890887 -0.055932364052739637 0.054040496920801928 -0.056181979134112971 0.084404434188381644 0.0053722068581094099 -0.023299344239963427 0.03523485601837955 -0.056736538885161281 -0.0071717651978024611 -0.041757187291914147 0.066637179695362606 -0.013989494063637472 0.011490145947622215 -0.033100058734416959 0.05725245446529028 -0.038128601014614107 -0.031407695284177514 0 -0.01454643805940708 0.10206481757530798 -0.00625257633626461 0.0018766461821711534 0.025744478617395671 0.01043420079913808 0.043367009517347926 0.013309757145387785 0 -0.012494261999511055 0.0044846826339140534 0
leaf_weight=881 28 387 78 90 40 107 133 127 117 226 228 32 22 39 52 47 173 57 166 194 25 57 167 40 205 83 27 26 74 20
leaf_count=881 28 387 78 90 40 107 133 127 117 226 228 32 22 39 52 47 173 57 166 194 25 57 167 40 205 83 27 26 74 20
internal_value=-2.59835e-05 0.0521939 -0.0367279 0.0710012 0.0289262 -0.0135184 0.0324283 -0.0497003 -0.00760384 -0.0407115 0.0588598 -0.0357997 0.0192256 -0.049088 0.0428375 -0.0550233 -0.0374346 0.00012352 -0.0160233 0.0968893 -0.0123318 -0.00364237 0.0243123 0.00471996 0.040369 0.0110345 -0.00603176 -0.02152 0.00268205 -0.00337162
internal_weight=3948 1629 2319 899 730 833 702 1486 716 558 615 431 312 117 390 928 399 372 344 284 211 201 189 171 338 123 144 133 131 45
internal_count=3948 1629 2319 899 730 833 702 1486 716 558 615 431 312 117 390 928 399 372 344 284 211 201 189 171 338 123 144 133 131 45
is_linear=0
shrinkage=0.03


Tree=25
num_leaves=31
num_cat=0
split_feature=0 0 13 9 0 10 0 10 0 0 0 13 13 9 0 9 0 9 9 0 0 9 9 19 9 9 9 9 9 9
split_gain=7918.48 829.543 686.312 308.901 209.781 154.193 109.743 47.3991 39.9693 28.898 24.6492 16.4185 15.8171 11.1941 7.3128 7.28942 5.72056 8.111 5.64792 4.89454 3.80631 3.76406 2.45754 1.88003 1.44455 1.37064 1.04996 0.95626 0.953129 0.215926
threshold=116.50000000000001 11.022500000000003 3819.7812242764294 -0.6695125409688133 996.52300000000014 -0.76001914312257524 1.9999999999999984 -0.56531327542601162 38.42534611544734 2681.0000000000005 370.32150000000007 0.97053763650708758 15016.274885209001 2.0886063694201851 4.0235000000000012 0.88267429218533666 0.22222027865413227 -0.42836814121826505 -0.35559587712003216 23.228000000000002 67.466500000000011 -0.28183537463976954 -0.12936007324248064 262.04050000000007 -0.14828439141979452 0.17385411492953287 -0.066638200967817016 -0.99803638322541788 0.20438400662653958 -0.048708492934861895
decision_type=2 2 2 2 2 2 2 2 2 2 2 2 2 2 2 2 2 2 2 2 2 2 2 2 2 2 2 2 2 2
left_child=1 6 3 -2 10 27 11 -8 15 -6 21 16 -4 14 -9 19 -1 -18 -10 26 28 -5 -12 -23 -21 -22 -7 -3 29 -20
right_child=2 5 12 4 9 8 7 13 18 -11 22 -13 -14 -15 -16 -17 17 -19 20 24 25 23 -24 -25 -26 -27 -28 -29 -30 -31
leaf_value=-0.054700504141319696 -0.049663884392939506 -0.05454136398103502 0.078319348636663177 0.0063260531441672986 0.048843085453323783 -0.019654439168316974 -0.052777097362738383 -0.035390221435448219 -0.0087305311791133142 0.062015488175095106 0.025279879595922389 -0.022823789864778517 0.098317164421081543 -0.0056167479179037565 -0.025159386501207456 0.005354823347713266 -0.055504667053759935 -0.043849782323700251 -0.0016016681122655082 -0.014241561507806181 0.0063745702319734148 0.01495428343968732 0.037620783608950929 0.02418648495674133 -0.0058276545128590138 0.015929903828579447 -0.012750341465696693 -0.034192300226007187 0.0058136117816902696 0.000926494640935904
leaf_weight=713 31 53 105 22 472 69 103 173 29 304 45 23 209 21 181 20 141 260 52 31 125 55 177 149 128 22 119 20 29 67
leaf_count=713 31 53 105 22 472 69 103 173 29 304 45 23 209 21 181 20 141 260 52 31 125 55 177 149 128 22 119 20 29 67
internal_value=-2.44772e-05 -0.0345309 0.0522656 0.0422361 0.0446268 -0.00871109 -0.0467139 -0.03432 -0.00424958 0.0541152 0.0280407 -0.0518633 0.0919951 -0.0290438 -0.0303293 -0.011035 -0.0524149 -0.0481504 0.00335443 -0.0120786 0.00466927 0.0205767 0.0353784 0.0219288 -0.00773436 0.00810529 -0.0155336 -0.0499091 0.00102363 0
internal_weight=3948 2379 1569 1255 1224 764 1615 478 691 776 448 1137 314 375 354 367 1114 401 324 347 295 226 222 204 159 147 188 73 148 119
internal_count=3948 2379 1569 1255 1224 764 1615 478 691 776 448 1137 314 375 354 367 1114 401 324 347 295 226 222 204 159 147 188 73 148 119
is_linear=0
shrinkage=0.03


Tree=26
num_leaves=31
num_cat=0
split_feature=0 0 13 9 0 10 1 0 12 0 1 13 9 0 9 9 0 9 0 9 9 9 13 0 9 9 9 17 9 9
split_gain=7454.15 734.87 669.077 283.464 215.992 156.191 90.7238 38.7916 30.8195 30.4123 19.8958 17.6732 14.4975 10.4056 6.37731 5.44515 4.63937 11.5096 4.61363 4.37629 3.57026 3.56852 3.27856 2.9811 2.21705 1.9211 1.57632 1.27726 1.23866 1.15761
threshold=103.18400000000001 9.9830000000000023 3433.9501063817829 -0.88832786712676548 801.31900000000007 -0.76001914312257524 1.4450000000000001 32.285000000000004 8723.9648311064411 2602.0000000000005 249.50000000000003 1.1342554997635623 -0.2022784527906866 3.5510639339176078 0.88267429218533666 0.45512491855175935 0.14960173955864683 -0.34420432610076712 64.612499380624016 -0.11245283801152621 0.48809957057927195 -0.070863356338291925 473.72661011801347 17.002000000000002 -0.28183537463976954 -0.23016036860684894 0.99999999999995015 250.7694555793702 -0.22434224369027575 -0.99803638322541788
decision_type=2 2 2 2 2 2 2 2 2 2 2 2 2 2 2 2 2 2 2 2 2 2 2 2 2 2 2 2 2 2
left_child=1 6 3 -2 10 29 11 14 -4 22 25 16 -8 26 19 18 -1 -18 24 -7 -15 -12 -6 -21 -9 -5 -14 -23 -20 -3
right_child=2 5 8 4 9 7 12 15 -10 -11 21 -13 13 20 -16 -17 17 -19 28 23 -22 27 -24 -25 -26 -27 -28 -29 -30 -31
leaf_value=-0.053168161192689412 -0.052873712613664824 -0.053175291976621068 0.071605924001106852 0.0059823578762006942 0.039400403055879801 -0.019746376933722661 -0.045253390371799471 -0.010858205634355545 0.094477027753555098 0.059460118454653065 0.022323194558803848 -0.020562176201492546 -0.037917855839494245 -0.025736901735266049 0.0020473718762640718 0.014734867595964006 -0.053384094769355808 -0.041883408696605604 -0.00012038183685105579 -0.015268944681871056 -0.0092329818179661561 0.025447730403680067 0.048229778841251632 -0.0076067046865701997 -0.00091159582176384584 0.016543229852731409 -0.023950770951807497 0.035384216088997687 0.0062092563221734518 -0.033475584252314131
leaf_weight=661 28 61 116 31 134 86 89 24 228 285 90 23 141 143 22 26 210 259 25 100 21 64 392 140 160 116 29 113 110 21
leaf_count=661 28 61 116 31 134 86 89 24 228 285 90 23 141 143 22 26 210 259 25 100 21 64 392 140 160 116 29 113 110 21
internal_value=-2.47058e-05 -0.034002 0.0499656 0.0396905 0.0418722 -0.010017 -0.0457638 -0.00530236 0.0870815 0.05091 0.0240152 -0.0502032 -0.0335021 -0.0301555 -0.0123655 0.00175063 -0.0507613 -0.0471994 0.000555861 -0.0134332 -0.0238742 0.0290273 0.0461164 -0.0109739 -0.00242282 0.0145743 -0.0358647 0.0321231 0.00482425 -0.0489558
internal_weight=3948 2351 1597 1253 1225 775 1576 693 344 811 414 1153 423 334 348 345 1130 469 319 326 164 267 526 240 184 147 170 177 135 82
internal_count=3948 2351 1597 1253 1225 775 1576 693 344 811 414 1153 423 334 348 345 1130 469 319 326 164 267 526 240 184 147 170 177 135 82
is_linear=0
shrinkage=0.03


Tree=27
num_leaves=31
num_cat=0
split_feature=0 0 13 9 0 10 0 9 0 0 0 13 13 9 9 0 9 0 0 9 9 9 9 9 0 0 9 9 0 9
split_gain=7018.12 734.558 608.531 274.786 185.19 137.143 97.4884 42.2972 34.2121 25.1909 22.6042 14.3828 13.7944 9.74968 6.89697 6.34045 5.50707 5.29476 4.86492 6.0523 3.52018 3.27477 2.14985 1.96358 1.62883 1.57627 1.15522 0.759256 0.587367 0.515028
threshold=116.50000000000001 11.022500000000003 3819.7812242764294 -0.6695125409688133 1069.0000000000002 -0.67719366882692855 1.9999999999999984 -0.47604073075771181 41.698500000000003 370.32150000000007 2681.0000000000005 0.97053763650708758 17302.471274181949 2.0886063694201851 0.66666666666666696 4.0235000000000012 -0.92774725274725267 19.144244313467848 0.49156449646116734 -0.42836814121826505 0.023161622168265564 -0.28183537463976954 -0.12936007324248064 -0.35559587712003216 166.53893713386995 69.855500000000021 -0.073224976716959586 1.4292976739825538 67.466500000000011 0.45512491855175935
decision_type=2 2 2 2 2 2 2 2 2 2 2 2 2 2 2 2 2 2 2 2 2 2 2 2 2 2 2 2 2 2
left_child=1 6 3 -2 9 16 11 -8 14 21 -6 18 -4 15 17 -9 -3 -7 27 -20 23 -5 -11 -10 -23 -25 -19 -1 -22 -21
right_child=2 5 12 4 10 8 7 13 20 22 -12 -13 -14 -15 -16 -17 -18 26 19 29 28 24 -24 25 -26 -27 -28 -29 -30 -31
leaf_value=-0.051752377351125083 -0.046896066314075141 -0.050125063436646612 0.074940288795912566 0.005930226931105489 0.046366011580186231 -0.015378960371017455 -0.048722324245854425 -0.033038345300234286 -0.0065197496650659511 0.024835217652412561 0.058347329002911924 -0.0214765472500585 0.093264412513146031 -0.005046433949980631 0.0037562645429038794 -0.023306960357447802 -0.025856310725212096 -0.011019777666245189 -0.052039063940656945 -0.040677705538737306 0.0043349785693898432 0.013698420163530569 0.035971349202436838 0 0.022654092176394029 0.0054570177375254303 -0.0052782026445493098 -0.042658376265974608 0.011228640476862589 -0.025370905314173017
leaf_weight=764 31 61 120 22 447 148 113 168 22 51 304 23 194 21 28 176 21 69 93 153 40 51 196 98 153 87 137 84 53 20
leaf_count=764 31 61 120 22 447 148 113 168 22 51 304 23 194 21 28 176 21 69 93 153 40 51 196 98 153 87 137 84 53 20
internal_value=-2.53569e-05 -0.0325113 0.0492018 0.0397551 0.0420107 -0.00821171 -0.0439759 -0.0322843 -0.00372675 0.0270785 0.051327 -0.048832 0.0866169 -0.0269941 -0.00969271 -0.0282284 -0.0446577 -0.0108486 -0.0493501 -0.0440031 0.00377722 0.019372 0.0339024 0.00140799 0.0206393 0.00254202 -0.00739022 -0.0509382 0.00866043 -0.0392365
internal_weight=3948 2379 1569 1255 1224 764 1615 478 682 473 751 1137 314 365 382 344 82 354 1114 266 300 226 247 207 204 185 206 848 93 173
internal_count=3948 2379 1569 1255 1224 764 1615 478 682 473 751 1137 314 365 382 344 82 354 1114 266 300 226 247 207 204 185 206 848 93 173
is_linear=0
shrinkage=0.03


Tree=28
num_leaves=31
num_cat=0
split_feature=0 0 13 9 0 10 0 10 0 0 0 13 13 9 9 0 9 0 0 9 9 9 0 9 9 19 9 9 9 9
split_gain=6606.68 691.339 572.761 259.525 176.065 129.274 91.6108 39.9005 32.2849 24.1141 20.382 13.4112 12.8124 9.49032 5.99657 5.71741 5.08119 4.51799 4.51566 6.98942 3.98047 3.6065 2.74827 2.66856 1.67432 1.5233 1.0179 0.938342 0.828634 0.79579
threshold=116.50000000000001 11.022500000000003 3819.7812242764294 -0.88832786712676548 996.52300000000014 -0.67719366882692855 1.9999999999999984 -0.56531327542601162 38.42534611544734 2681.0000000000005 370.32150000000007 0.97053763650708758 15016.274885209001 0.63505152401122089 0.88267429218533666 4.4564597902013476 -0.92774725274725267 19.144244313467848 0.14960173955864683 -0.42836814121826505 -0.23705972947636247 -0.28183537463976954 67.466500000000011 -0.22434224369027575 1.4292976739825538 262.04050000000007 0.17385411492953287 -0.077485250795104418 2.0886063694201851 -0.40350121028667707
decision_type=2 2 2 2 2 2 2 2 2 2 2 2 2 2 2 2 2 2 2 2 2 2 2 2 2 2 2 2 2 2
left_child=1 6 3 -2 10 16 11 -8 14 -6 21 18 -4 15 17 -9 -3 -7 -1 -20 29 -5 -22 -12 -21 -23 -24 -19 -15 -10
right_child=2 5 12 4 9 8 7 13 20 -11 23 -13 -14 28 -16 -17 -18 27 19 24 22 25 26 -25 -26 -27 -28 -29 -30 -31
leaf_value=-0.050145591263093849 -0.049983831191885056 -0.048645564010066367 0.071514036115610372 0.0052292755758389826 0.044520445680127869 -0.014829040179519276 -0.048287680492951318 -0.032942277638308974 -0.007979656039969996 0.056602647906444106 0.017779399063438176 -0.020859096594504078 0.089815543140683851 -0.016478640711307526 0.004999760179115193 -0.023350071083888951 -0.025115879266099497 -0.011034850687798806 -0.050741019563854864 -0.041468174057927999 0.0014535531267239193 0.013581158226089818 0.0061209655300730704 0.033574800108795738 -0.025274593690815181 0.022103749412298201 0.014809631789508072 -0.0053362977698522343 -0.0049019223100251769 0
leaf_weight=671 28 61 105 23 473 151 103 165 23 304 23 23 209 24 20 165 21 58 158 263 134 55 111 200 22 149 22 132 21 31
leaf_count=671 28 61 105 23 473 151 103 165 23 304 23 23 209 24 20 165 21 58 158 263 134 55 111 200 22 149 22 132 21 31
internal_value=-2.61291e-05 -0.0315457 0.047736 0.0385699 0.0406542 -0.00797033 -0.042668 -0.0313283 -0.00361454 0.0493528 0.0254919 -0.0473771 0.0840373 -0.0264743 -0.00977846 -0.0283218 -0.0433563 -0.010745 -0.0478785 -0.0442719 0.00323314 0.0186913 0.00478507 0.0321663 -0.0404158 0.0200298 0.00788186 -0.00728159 -0.0119524 -0.00384232
internal_weight=3948 2379 1569 1255 1227 764 1615 478 682 777 450 1137 314 375 361 330 82 341 1114 443 321 227 267 223 285 204 133 190 45 54
internal_count=3948 2379 1569 1255 1227 764 1615 478 682 777 450 1137 314 375 361 330 82 341 1114 443 321 227 267 223 285 204 133 190 45 54
is_linear=0
shrinkage=0.03


Tree=29
num_leaves=31
num_cat=0
split_feature=0 0 13 9 0 10 0 10 0 0 0 13 13 9 9 9 0 0 0 9 9 9 9 0 0 9 9 9 9 9
split_gain=6219.34 650.633 539.093 244.599 165.447 121.856 86.0274 37.7594 30.4172 22.6058 19.1187 12.4992 12.0097 9.65661 5.67164 4.68373 4.38752 4.35983 4.22781 3.79044 3.67281 3.35821 2.45492 2.2774 1.40127 1.28889 1.23126 1.04164 0.759017 0.722151
threshold=116.50000000000001 11.022500000000003 3819.7812242764294 -0.88832786712676548 996.52300000000014 -0.67719366882692855 1.9999999999999984 -0.7860472702957132 38.42534611544734 2681.0000000000005 370.32150000000007 0.97053763650708758 17302.471274181949 0.63505152401122089 0.88267429218533666 -0.92774725274725267 4.4564597902013476 0.87598347114088393 23.228000000000002 -0.12205232305956908 -0.63568362265332079 -0.28183537463976954 -0.12936007324248064 67.466500000000011 166.53893713386995 -0.16628264208909369 -0.40350121028667707 3.5075757575757578 2.0886063694201851 0.17385411492953287
decision_type=2 2 2 2 2 2 2 2 2 2 2 2 2 2 2 2 2 2 2 2 2 2 2 2 2 2 2 2 2 2
left_child=1 6 3 -2 10 15 11 -8 14 -6 21 17 -4 16 18 -3 -9 27 -7 26 -19 -5 -12 -21 -23 -18 -10 -1 -15 -25
right_child=2 5 12 4 9 8 7 13 19 -11 22 -13 -14 28 -16 -17 25 20 -20 23 -22 24 -24 29 -26 -27 -28 -29 -30 -31
leaf_value=-0.048347413146270897 -0.048536022860428379 -0.047209737118213406 0.070514907383721723 0.0050789338583126665 0.043187649769684935 -0.013633872212015371 -0.049407957935907749 -0.032214595165555873 -0.0077502409354201522 0.054910135898433743 0.021729839168330455 -0.020259397382615132 0.087800179921663724 -0.016004055941104888 0.0048569097928702828 -0.024396651949394832 -0.03021757342377487 -0.0496855386027268 -0.0063317683871495171 0.0018854052934620992 -0.036204893986384074 0.012861352935433387 0.033372030177812893 0.0063274806254404658 0.021338338666148 -0.02086322708563371 0 -0.038660902205056372 -0.0047615490244193506 0.01438465981379799
leaf_weight=847 28 61 120 23 473 186 82 172 23 304 46 23 194 24 20 21 48 55 155 119 143 51 177 93 153 131 64 69 21 22
leaf_count=847 28 61 120 23 473 186 82 172 23 304 46 23 194 24 20 21 48 55 155 119 143 51 177 93 153 131 64 69 21 22
internal_value=-2.69033e-05 -0.0306088 0.0463138 0.0374198 0.0394437 -0.00773653 -0.0413988 -0.0304039 -0.00350617 0.0478773 0.0247413 -0.045964 0.0815344 -0.0262786 -0.00948976 -0.0420931 -0.0280333 -0.0464491 -0.0104307 0.00313844 -0.0403311 0.0181438 0.0312122 0.00515693 0.0194385 -0.0236923 -0.00194661 -0.0476934 -0.0116273 0.00823819
internal_weight=3948 2379 1569 1255 1227 764 1615 478 682 777 450 1137 314 396 361 82 351 1114 341 321 198 227 223 234 204 179 87 916 45 115
internal_count=3948 2379 1569 1255 1227 764 1615 478 682 777 450 1137 314 396 361 82 351 1114 341 321 198 227 223 234 204 179 87 916 45 115
is_linear=0
shrinkage=0.03


Tree=30
num_leaves=31
num_cat=0
split_feature=0 13 0 9 13 10 0 0 0 10 0 9 16 9 9 12 0 0 0 13 9 9 9 9 0 9 9 9 9 9
split_gain=5855.44 552.033 538.53 187.053 163.203 136.071 103.287 50.5324 36.7888 31.615 11.0891 10.903 9.03328 8.35398 7.60634 5.81232 5.00514 4.92428 4.45391 2.98782 2.91895 2.24362 2.06335 1.71419 0.935181 0.713856 0.575537 0.41201 0.326471 0.315975
threshold=91.395500000000013 1174.7825133137005 6.9930000000000012 -0.88832786712676548 5570.5520772430727 -0.56531327542601162 494.50000000000006 0.87598347114088393 27.19351965261728 -0.7860472702957132 166.53893713386995 1.4292976739825538 1884.3405211612996 -0.97641331856282743 14.066853715170277 1704.3641631200014 2.746 45.029000000000003 13.003500000000001 120.71961269358376 0.168132619196001 -0.066638200967817016 0.31446471371328261 0.35632079563294466 71.909289528855894 -0.10815600382258315 0.32983952670012734 -0.054618050427049751 0.58060181094625407 -0.028210526315790626
decision_type=2 2 2 2 2 2 2 2 2 2 2 2 2 2 2 2 2 2 2 2 2 2 2 2 2 2 2 2 2 2
left_child=2 3 7 -2 15 13 10 14 18 -9 25 16 19 -4 -1 -3 -11 22 26 -8 -20 -12 29 24 27 -5 -7 -19 -22 -10
right_child=1 4 5 6 -6 8 12 9 17 11 21 -13 -14 -15 -16 -17 -18 23 20 -21 28 -23 -24 -25 -26 -27 -28 -29 -30 -31
leaf_value=-0.046658696109543034 -0.047130150836089561 0.046822929738468154 -0.047082931361620936 0.0044236107563067756 0.081767567316691089 -0.019372059437963697 0.029146001575016737 -0.049070040301843122 -0.0068405812907104306 -0.035303840878847477 0.01576428762713776 -0.011263254264538938 0.048605555295944215 -0.027173464563877685 -0.030625451911473645 0.056530583036684352 -0.026896582636131247 -0.0013245173974086801 -0.011965467994863336 0.038045038704702334 -0.0045924836912980445 0.024240325182900389 0.002895113954786211 0.011905728983027592 0.0052211917247345198 0.011166444196399434 -0.010015107202861044 0.0019914179595652967 0 -0.0023145522235427053
leaf_weight=881 28 240 78 41 269 107 100 109 77 221 84 32 92 45 47 225 196 48 164 336 25 132 29 20 66 82 26 79 20 49
leaf_count=881 28 240 78 41 269 107 100 109 77 221 84 32 92 45 47 225 196 48 164 336 25 132 29 20 66 82 26 79 20 49
internal_value=-2.75511e-05 0.0435414 -0.0306514 0.0276172 0.0628537 -0.0112744 0.0301173 -0.0414785 -0.0061509 -0.0339812 0.0169604 -0.0301506 0.0384598 -0.0403188 -0.0459128 0.0516958 -0.0314978 0.000357216 -0.0132219 0.036144 -0.0100596 0.0211702 -0.00360538 0.00338436 0.00228986 0.00921457 -0.0178552 0.000503219 -0.00235233 -0.00534876
internal_weight=3948 1629 2319 895 734 833 867 1486 710 558 339 449 528 123 928 465 417 368 342 436 209 216 155 213 193 123 133 127 45 126
internal_count=3948 1629 2319 895 734 833 867 1486 710 558 339 449 528 123 928 465 417 368 342 436 209 216 155 213 193 123 133 127 45 126
is_linear=0
shrinkage=0.03


Tree=31
num_leaves=31
num_cat=0
split_feature=0 0 0 13 10 9 13 0 0 10 0 9 0 9 9 12 0 0 0 9 9 9 12 9 0 0 9 9 9 9
split_gain=5512.12 520.325 506.616 193.504 128.176 120.318 61.9892 47.3932 34.6885 29.6955 27.3398 10.1944 9.76431 7.77949 7.03972 5.49608 4.67652 4.64492 4.17558 3.26023 2.73169 1.95405 1.83871 1.61295 1.3187 0.875031 0.503688 0.37281 0.309545 0.287119
threshold=91.395500000000013 4605.5000000000009 6.9930000000000012 259.03368352280989 -0.56531327542601162 -0.88832786712676548 7428.8033340553948 0.87598347114088393 27.19351965261728 -0.7860472702957132 277.58200000000005 1.4292976739825538 1824.0000000000002 -0.97641331856282743 14.066853715170277 578.92838287456175 2.8925000000000005 45.029000000000003 13.003500000000001 0.091955010499931725 0.168132619196001 0.31446471371328261 335.69135 0.33605169653064643 123.50000000000001 71.909289528855894 0.32983952670012734 -0.054618050427049751 0.58060181094625407 -0.028210526315790626
decision_type=2 2 2 2 2 2 2 2 2 2 2 2 2 2 2 2 2 2 2 2 2 2 2 2 2 2 2 2 2 2
left_child=2 3 7 5 13 -2 -3 14 18 -9 19 16 22 -4 -1 -12 -11 21 26 24 -20 29 -5 25 -7 27 -6 -19 -22 -10
right_child=1 6 4 12 8 10 -8 9 17 11 15 -13 -14 -15 -16 -17 -18 23 20 -21 28 -23 -24 -25 -26 -27 -28 -29 -30 -31
leaf_value=-0.04526052317499709 -0.045368961577232067 0.05676653180803571 -0.045688321424435963 0.026477429240942003 -0.018796278710166613 0.004726868130041864 0.080826010704040524 -0.04761132125421004 -0.0066379947688143988 -0.034023296584474276 0.020906093109499761 -0.010935595936395905 0.046188626707109631 -0.026375982648004656 -0.029725829219678413 0.031599924686728724 -0.025806459011105089 -0.0012855928192361807 -0.011608679473400114 0.018937220778958552 -0.0044600082274812922 0.0028111556372605265 0.038726500326395033 0.011150110260300014 0.011855052980447285 0.0050320818707008247 -0.0097257817660768818 0.0018782605923405742 0 -0.0022465043916832655
leaf_weight=881 25 209 78 39 107 57 239 109 77 234 110 32 350 45 47 150 183 48 164 57 25 29 299 22 94 65 26 78 20 49
leaf_count=881 25 209 78 39 107 57 239 109 77 234 110 32 350 45 47 150 183 48 164 57 25 29 299 22 94 65 26 78 20 49
internal_value=-2.68608e-05 0.0422453 -0.0297396 0.0317095 -0.010944 0.0172091 0.0698201 -0.0402412 -0.00596988 -0.0329731 0.0207056 -0.029255 0.0420163 -0.0391345 -0.0445389 0.027288 -0.0305595 0.000347437 -0.0128361 0.0122428 -0.00976283 -0.00349842 0.0374839 0.00328953 0.00941045 0.00217451 -0.0173328 0.00043613 -0.00227745 -0.00519755
internal_weight=3948 1629 2319 1181 833 493 448 1486 710 558 468 449 688 123 928 260 417 368 342 208 209 155 338 213 151 191 133 126 45 126
internal_count=3948 1629 2319 1181 833 493 448 1486 710 558 468 449 688 123 928 260 417 368 342 208 209 155 338 213 151 191 133 126 45 126
is_linear=0
shrinkage=0.03


Tree=32
num_leaves=31
num_cat=0
split_feature=0 0 13 9 0 10 0 9 0 0 13 17 13 9 9 0 9 9 0 9 0 0 9 9 10 9 19 9 9 13
split_gain=5189.13 542.73 451.282 206.175 132.832 101.978 71.4079 36.6239 26.576 18.0113 15.3004 15.073 8.97255 6.79567 5.16256 4.4855 3.79768 3.56392 3.23292 4.82532 3.15615 2.5295 2.44387 1.77449 1.64994 1.09365 1.08804 0.955729 0.706108 0.460699
threshold=116.50000000000001 11.022500000000003 3564.4386284924253 -0.6695125409688133 1069.0000000000002 -0.76001914312257524 1.6602116168296608 -0.33333333333333326 38.42534611544734 370.32150000000007 15016.274885209001 1121.9671532992872 0.97053763650708758 2.0886063694201851 0.88267429218533666 4.0235000000000012 -0.35559587712003216 -0.35559587712003216 0.14960173955864683 -0.24451333616461615 19.144244313467848 67.466500000000011 -0.28183537463976954 0.0044239475398626391 -0.89738438332314885 1.4292976739825538 262.04050000000007 0.17385411492953287 -0.02431054116836839 1016.9742281991233
decision_type=2 2 2 2 2 2 2 2 2 2 2 2 2 2 2 2 2 2 2 2 2 2 2 2 2 2 2 2 2 2
left_child=1 6 3 -2 9 -3 12 24 14 22 -4 29 18 15 17 -9 -10 -7 -1 -20 -19 28 -5 -11 -8 -21 -24 -23 -18 -6
right_child=2 5 10 4 11 8 7 13 16 23 -12 -13 -14 -15 -16 -17 21 20 19 25 -22 27 26 -25 -26 -27 -28 -29 -30 -31
leaf_value=-0.044520790368052461 -0.041064854018040935 -0.04057813839936579 0.062172086022116921 0.0048534872463863827 0.037252131794217373 -0.02230842341547427 -0.046152366231469545 -0.02800486203871275 -0.0070889244608115399 0.024862672310555351 0.079694900001798352 0.051764764250188632 -0.01803876812702843 -0.0054269857719540593 0.0046892797348222553 -0.019599816582181996 -0.0010222113833394057 -0.012413656292678592 -0.044697987131774426 -0.036548590932149613 -0.0058701698306401293 0.0051495578755358503 0.012045467269739934 0.033053983267673781 -0.033344536845026342 -0.021507110287036214 0.019643329828977586 0.013308485623287118 0.0029159002301793616 0.043131515070943545
leaf_weight=671 31 73 120 22 228 22 84 170 29 127 209 206 20 24 20 170 71 142 159 240 183 125 55 120 57 20 149 22 77 302
leaf_count=671 31 73 120 22 228 22 84 170 29 127 209 206 20 24 20 170 71 142 159 240 183 125 55 120 57 20 149 22 77 302
internal_value=-2.6256e-05 -0.0279613 0.042302 0.0339206 0.0359004 -0.00706739 -0.0378164 -0.028168 -0.0034303 0.0232798 0.0736023 0.0439279 -0.0421497 -0.0228386 -0.00896707 -0.0239601 0.00275727 -0.0098516 -0.0425477 -0.0392179 -0.0088505 0.00384723 0.0167078 0.0290805 -0.0414573 -0.0355933 0.01781 0.006655 0.000831148 0.0407337
internal_weight=3948 2379 1569 1240 1209 764 1615 505 691 473 329 736 1110 364 367 340 324 347 1090 419 325 295 226 247 141 260 204 147 148 530
internal_count=3948 2379 1569 1240 1209 764 1615 505 691 473 329 736 1110 364 367 340 324 347 1090 419 325 295 226 247 141 260 204 147 148 530
is_linear=0
shrinkage=0.03


Tree=33
num_leaves=31
num_cat=0
split_feature=0 13 0 12 9 10 0 0 0 9 13 0 9 9 16 9 9 0 12 0 9 9 9 9 0 9 9 0 9 0
split_gain=4885.7 474.336 436.634 178.95 148.923 118.128 61.6665 38.5477 30.413 20.3274 9.34048 7.55049 7.25986 6.53362 6.0684 5.93633 5.56485 5.1579 3.84247 3.75133 2.52908 1.67588 1.57293 1.42667 0.742485 0.738008 0.674498 0.574008 0.517296 0.306816
threshold=86.691571937394116 766.46359260094448 5.0321067576809186 3289.7044748983649 -0.88832786712676548 -0.59925915515579808 416.01350000000008 23.228000000000002 0.87598347114088393 -0.7562306638823042 20322.696179680712 166.53893713386995 0.19854057141343043 14.066853715170277 1884.3405211612996 1.1007882882882889 -0.92774725274725267 45.029000000000003 1013.6805389497237 11.022500000000003 0.55044907339448035 -0.016532240098445668 -0.28920142653409026 -0.21818335871120823 3.0021004746680675 0.075745866704135648 -0.078466592869619864 2.746 -0.0062310564396051973 38.42534611544734
decision_type=2 2 2 2 2 2 2 2 2 2 2 2 2 2 2 2 2 2 2 2 2 2 2 2 2 2 2 2 2 2
left_child=2 4 8 18 -2 16 11 15 13 -10 -5 25 27 -1 22 19 -4 20 -3 -7 26 -19 -8 -13 -14 -6 -9 -11 -21 -28
right_child=1 3 5 10 6 7 14 17 9 12 -12 23 24 -15 -16 -17 -18 21 -20 28 -22 -23 -24 -25 -26 -27 29 -29 -30 -31
leaf_value=-0.042620169535076538 -0.043611779928207396 0.040487398270073284 -0.042867307711554607 0.0636749727808196 0.0066433575677351565 -0.019428952684176378 0.017333913396881975 -0.0083371389728216904 -0.044814162679237893 -0.033435012597752653 0.078618135968844094 0.008052123050691317 -0.021745796689569059 -0.02768946071853861 0.044091706590832405 0 -0.025357764397815959 0 0.04799623932496485 -0.014500197497722895 0.0048237308195199485 0.0054867018303353214 0.031272055083644876 0.019658966213464735 -0.010254116610369898 0.013832256885305528 -0.0042635211035681577 -0.026580064369284589 -0.0092253405224455853 0
leaf_weight=881 29 326 91 144 105 144 22 62 100 183 179 22 66 47 52 21 40 111 250 91 21 92 316 167 21 30 102 114 97 22
leaf_count=881 29 326 91 144 105 144 22 62 100 183 179 22 66 47 52 21 40 111 250 91 21 92 316 167 21 30 102 114 97 22
internal_value=-2.61798e-05 0.0395021 -0.0281904 0.0541784 0.021655 -0.0117181 0.0244052 -0.00712592 -0.0385829 -0.0320362 0.0722659 0.0144951 -0.0285229 -0.0419269 0.0325033 -0.0143832 -0.0379808 -0.000784747 0.043876 -0.0153613 -0.00416247 0.002516 0.0305071 0.0185153 -0.0194609 0.00855144 -0.00535784 -0.0310025 -0.0120005 -0.00357341
internal_weight=3948 1642 2306 899 743 894 714 763 1412 484 323 324 384 928 390 353 131 410 576 332 207 203 338 189 87 135 186 297 188 124
internal_count=3948 1642 2306 899 743 894 714 763 1412 484 323 324 384 928 390 353 131 410 576 332 207 203 338 189 87 135 186 297 188 124
is_linear=0
shrinkage=0.03


Tree=34
num_leaves=31
num_cat=0
split_feature=0 13 0 12 9 9 0 0 0 9 13 5 9 9 9 9 0 16 12 0 9 9 9 13 9 9 0 9 13 9
split_gain=4599.63 446.245 410.806 168.392 140.405 111.311 58.0844 36.5508 28.4538 19.0661 8.64514 8.5997 6.73316 6.04257 5.61479 5.52837 5.34584 4.77592 3.58037 3.10686 2.47906 1.53918 1.36079 1.17236 0.913324 0.477489 0.475387 0.385116 0.305571 0.265745
threshold=86.691571937394116 766.46359260094448 5.0321067576809186 3289.7044748983649 -0.88832786712676548 -0.59311956682923717 494.50000000000006 22.082500000000007 0.87598347114088393 -0.71879526058584786 20322.696179680712 166.06250000000003 0.11135567192015007 14.066853715170277 -0.92774725274725267 1.1007882882882889 43.984000000000009 1884.3405211612996 843.79297989958627 9.9830000000000023 0.55044907339448035 -0.016532240098445668 -0.070863356338291925 96.53734993055555 2.0886063694201851 -0.18328318267582519 2.746 0.055005409162716574 -70.200968470785213 0.33605169653064643
decision_type=2 2 2 2 2 2 2 2 2 2 2 2 2 2 2 2 2 2 2 2 2 2 2 2 2 2 2 2 2 2
left_child=2 4 8 18 -2 14 11 15 13 -10 -5 23 26 -1 -4 19 20 28 -3 -7 25 -18 -13 -6 -14 -9 -11 -21 -8 -23
right_child=1 3 5 10 6 7 17 16 9 12 -12 22 24 -15 -16 -17 21 -19 -20 27 -22 29 -24 -25 -26 -27 -28 -29 -30 -31
